svm_type c_svc
kernel_type rbf
gamma 0.5
nr_class 2
total_sv 45
rho -0.831918
label 1 2
nr_sv 24 21
SV
128 1:-0.787234 2:1 3:-1 
28.15490877995954 1:-0.531915 2:-0.272727 3:-0.230769 
85.88931533378207 1:-0.531915 2:0.272727 3:-1 
128 1:-0.489362 2:0.272727 3:-1 
18.69340514600548 1:-0.404255 2:-0.818182 3:-0.461538 
12.95084926808177 1:-0.319149 2:-0.636364 3:-0.846154 
97.94714562910434 1:-0.319149 2:0.454545 3:-0.538462 
128 1:-0.319149 2:0.636364 3:-1 
36.92982004889856 1:-0.191489 2:0.272727 3:-0.846154 
128 1:-0.191489 2:0.454545 3:-0.961538 
95.26278363355948 1:-0.148936 2:0.454545 3:-0.961538 
128 1:-0.0212766 2:1 3:-0.730769 
119.5960818841364 1:0.0212766 2:-1 3:-0.961538 
128 1:0.0212766 2:0.454545 3:-0.307692 
35.45153426680951 1:0.0212766 2:1 3:-0.153846 
122.5898656170641 1:0.148936 2:-0.636364 3:-0.884615 
75.45330015167588 1:0.191489 2:0.0909091 3:-0.846154 
14.46299084949508 1:0.191489 2:0.636364 3:-0.884615 
128 1:0.276596 2:0.272727 3:-0.692308 
66.51430429167411 1:0.276596 2:0.818182 3:-1 
128 1:0.319149 2:-0.272727 3:-0.769231 
12.53049253492149 1:0.404255 2:-1 3:-1 
51.03804311100261 1:0.659574 2:-0.818182 3:-0.692308 
128 1:0.659574 2:-0.0909091 3:-1 
-128 1:-0.574468 2:0.636364 3:-1 
-128 1:-0.531915 2:1 3:-0.961538 
-1.350377614211241 1:-0.489362 2:-1 3:1 
-128 1:-0.489362 2:0.0909091 3:-1 
-128 1:-0.404255 2:0.272727 3:-0.769231 
-128 1:-0.404255 2:0.454545 3:-1 
-22.19340598188656 1:-0.361702 2:1 3:-0.884615 
-128 1:-0.106383 2:1 3:-0.884615 
-128 1:-0.0638298 2:-0.818182 3:-0.884615 
-59.70631971291472 1:-0.0212766 2:0.272727 3:-0.115385 
-128 1:0.0212766 2:0.818182 3:-0.423077 
-128 1:0.0638298 2:0.272727 3:-0.653846 
-128 1:0.0638298 2:0.454545 3:-0.884615 
-73.84382141124382 1:0.106383 2:-0.272727 3:-0.461538 
-23.38226069635559 1:0.234043 2:-0.818182 3:-0.346154 
-128 1:0.234043 2:0.272727 3:-1 
-128 1:0.276596 2:-0.272727 3:-0.807692 
-128 1:0.319149 2:-1 3:-1 
-43.88325631166857 1:0.446809 2:0.454545 3:-0.423077 
-128 1:0.744681 2:-0.0909091 3:-1 
-9.105398817890272 1:1 2:0.272727 3:-0.961538 
