svm_type c_svc
kernel_type rbf
gamma 0.5
nr_class 2
total_sv 19
rho -0.965603
label 1 2
nr_sv 11 8
SV
1.79058397743141 1:-1 2:0.272727 3:-1 
8 1:-0.380952 2:-0.0909091 3:-0.913043 
5.285277308497967 1:-0.285714 2:0.0909091 3:-1 
2.216729781843038 1:-0.190476 2:-1 3:-0.869565 
8 1:-0.142857 2:0.454545 3:-1 
8 1:0.047619 2:-0.0909091 3:-0.826087 
2.052138996352896 1:0.142857 2:0.636364 3:1 
0.1276361817853105 1:0.333333 2:-0.454545 3:-0.956522 
3.880454823299663 1:0.380952 2:0.0909091 3:-0.956522 
8 1:0.666667 2:0.636364 3:-0.956522 
3.323798614707526 1:0.952381 2:0.818182 3:-0.913043 
-5.94267983222039 1:-0.428571 2:1 3:-0.956522 
-8 1:-0.285714 2:0.272727 3:-0.73913 
-8 1:-0.238095 2:-0.272727 3:-0.782609 
-8 1:-0.190476 2:-0.272727 3:-1 
-3.440856505435342 1:0.142857 2:0.818182 3:-0.695652 
-8 1:0.285714 2:0.0909091 3:-0.956522 
-1.293083346262077 1:0.666667 2:0.454545 3:-0.347826 
-8 1:0.857143 2:0.636364 3:-0.652174 
