svm_type c_svc
kernel_type rbf
gamma 0.5
nr_class 2
total_sv 79
rho 0.491636
label 1 2
nr_sv 43 36
SV
63.37019197356688 1:-0.886792 2:-0.636364 3:-1 
38.34108067012478 1:-0.849057 2:-1 3:0.153846 
128 1:-0.849057 2:0.636364 3:-0.730769 
24.22632479852759 1:-0.735849 2:-0.636364 3:-0.423077 
71.57304733589803 1:-0.660377 2:0.636364 3:-1 
98.46239145939016 1:-0.622642 2:-1 3:-0.923077 
128 1:-0.54717 2:-0.272727 3:-0.230769 
128 1:-0.433962 2:-0.818182 3:-0.461538 
94.36477826516773 1:-0.433962 2:0.0909091 3:-1 
128 1:-0.396226 2:-1 3:-0.884615 
128 1:-0.396226 2:-0.0909091 3:-1 
57.8265580113269 1:-0.358491 2:-0.0909091 3:-0.769231 
128 1:-0.358491 2:0.454545 3:-0.538462 
128 1:-0.320755 2:0.0909091 3:-1 
63.85844845620891 1:-0.283019 2:0.636364 3:-0.961538 
128 1:-0.245283 2:-0.454545 3:-0.769231 
128 1:-0.245283 2:0.0909091 3:-1 
50.69909988299597 1:-0.245283 2:0.454545 3:-0.961538 
128 1:-0.207547 2:0.0909091 3:-0.730769 
128 1:-0.207547 2:0.454545 3:-0.961538 
128 1:-0.0943396 2:-0.636364 3:-0.884615 
16.82864167374673 1:-0.0566038 2:-1 3:-0.961538 
54.33622750421586 1:-0.0566038 2:-1 3:-0.961538 
128 1:-0.0566038 2:0.454545 3:-0.307692 
126.4816175671214 1:-0.0566038 2:0.636364 3:-0.961538 
128 1:-0.0188679 2:0.454545 3:-0.923077 
41.46720651897541 1:0.0188679 2:0.0909091 3:-1 
106.7088176787026 1:0.0188679 2:0.0909091 3:-0.653846 
128 1:0.0566038 2:-1 3:-0.884615 
128 1:0.0943396 2:0.636364 3:-0.884615 
128 1:0.132075 2:-0.454545 3:-0.0384615 
82.61929604462394 1:0.245283 2:-0.454545 3:-0.653846 
4.706972761372589 1:0.245283 2:-0.454545 3:0.0769231 
128 1:0.283019 2:-1 3:-1 
91.98012789730183 1:0.283019 2:0.272727 3:-0.153846 
128 1:0.320755 2:-1 3:-1 
128 1:0.320755 2:-0.818182 3:-0.923077 
80.49866014135498 1:0.471698 2:-0.636364 3:-1 
128 1:0.471698 2:0.272727 3:-1 
57.33706731569574 1:0.584906 2:0.0909091 3:-1 
117.6509242194895 1:0.698113 2:-0.272727 3:-0.961538 
65.7878859523908 1:0.735849 2:0.636364 3:-1 
21.2572799100465 1:0.773585 2:0.272727 3:-0.884615 
-128 1:-0.849057 2:-0.818182 3:-1 
-128 1:-0.849057 2:0.454545 3:-0.653846 
-128 1:-0.584906 2:-0.636364 3:-0.115385 
-128 1:-0.584906 2:0.636364 3:-1 
-128 1:-0.509434 2:0.0909091 3:-1 
-128 1:-0.433962 2:0.454545 3:-1 
-128 1:-0.396226 2:-1 3:-0.923077 
-41.62460657845551 1:-0.396226 2:0.272727 3:-0.230769 
-128 1:-0.358491 2:-0.272727 3:-1 
-55.49257100194645 1:-0.358491 2:-0.0909091 3:-0.115385 
-0.5124297397699481 1:-0.320755 2:-1 3:-0.576923 
-56.6861007375986 1:-0.320755 2:-1 3:-0.576923 
-128 1:-0.320755 2:0.636364 3:-0.730769 
-128 1:-0.283019 2:-0.0909091 3:-1 
-128 1:-0.207547 2:-0.818182 3:-0.5 
-128 1:-0.169811 2:-0.818182 3:-0.923077 
-128 1:-0.169811 2:0.454545 3:-0.846154 
-128 1:-0.132075 2:-1 3:-0.846154 
-128 1:-0.132075 2:0.272727 3:-0.961538 
-128 1:-0.132075 2:0.272727 3:-0.538462 
-128 1:-0.0943396 2:-0.636364 3:-0.576923 
-91.11902931739661 1:-0.0943396 2:0.272727 3:-0.115385 
-128 1:-0.0566038 2:-0.0909091 3:-0.769231 
-128 1:-0.0188679 2:0.454545 3:-0.884615 
-128 1:0.0188679 2:-0.454545 3:-0.807692 
-128 1:0.0188679 2:0.0909091 3:-0.961538 
-52.59262420013883 1:0.0943396 2:-0.272727 3:0.346154 
-128 1:0.169811 2:0.272727 3:-1 
-128 1:0.169811 2:0.818182 3:-0.961538 
-128 1:0.320755 2:-0.454545 3:-0.923077 
-128 1:0.320755 2:0.454545 3:-0.423077 
-128 1:0.358491 2:-1 3:-1 
-128 1:0.509434 2:-1 3:-1 
-108.3552844629391 1:0.509434 2:-1 3:-0.846154 
-128 1:0.584906 2:-0.0909091 3:-1 
-128 1:0.811321 2:0.272727 3:-0.961538 
