svm_type c_svc
kernel_type rbf
gamma 0.5
nr_class 2
total_sv 62
rho -3.9393
label 1 2
nr_sv 36 26
SV
13.23481971411909 1:-0.957447 2:-0.818182 3:-0.866667 
28.09875725802012 1:-0.829787 2:-1 3:1 
162.2522064824278 1:-0.829787 2:0.636364 3:-0.533333 
210.6824362844119 1:-0.787234 2:-0.0909091 3:-1 
212.0834663135944 1:-0.787234 2:0.0909091 3:-0.133333 
419.9652548437804 1:-0.702128 2:-0.636364 3:-1 
211.1866761040981 1:-0.659574 2:0.636364 3:-0.666667 
257.8902889517448 1:-0.617021 2:-1 3:-1 
441.0682407323607 1:-0.531915 2:0.272727 3:-1 
248.5729387884068 1:-0.446809 2:0.0909091 3:-0.866667 
246.7475979266808 1:-0.361702 2:-0.818182 3:-0.0666667 
212.3335808962034 1:-0.361702 2:0.818182 3:-1 
512 1:-0.276596 2:-0.0909091 3:-0.6 
512 1:-0.276596 2:0.454545 3:-0.2 
247.5603621003127 1:-0.276596 2:0.818182 3:-0.733333 
512 1:-0.191489 2:-0.0909091 3:-0.8 
512 1:-0.191489 2:0.636364 3:-0.933333 
512 1:-0.148936 2:0.272727 3:-0.733333 
512 1:-0.106383 2:0.0909091 3:-0.533333 
512 1:-0.0212766 2:-1 3:-0.933333 
86.78298299463965 1:0.0212766 2:1 3:-0.533333 
467.8609750190815 1:0.106383 2:0.454545 3:-0.933333 
37.85588014052308 1:0.148936 2:1 3:-1 
383.1849492546849 1:0.191489 2:-0.636364 3:-0.8 
512 1:0.234043 2:0.0909091 3:-0.933333 
84.68812544512187 1:0.276596 2:-0.454545 3:0.666667 
268.6128399439395 1:0.276596 2:0.636364 3:-0.866667 
512 1:0.319149 2:-0.818182 3:-1 
512 1:0.361702 2:-0.272727 3:-0.6 
512 1:0.489362 2:-0.818182 3:-0.866667 
36.12632644698871 1:0.489362 2:0.0909091 3:-1 
123.918557932698 1:0.489362 2:0.0909091 3:-1 
255.620625672828 1:0.702128 2:-0.818182 3:-0.466667 
399.6719170148026 1:0.702128 2:0.454545 3:-0.0666667 
179.7438497262542 1:0.787234 2:0.0909091 3:-1 
277.542360335494 1:0.829787 2:-0.272727 3:-1 
-512 1:-0.829787 2:-0.818182 3:-1 
-512 1:-0.829787 2:0.454545 3:-0.4 
-161.9295612108111 1:-0.531915 2:-0.636364 3:0.533333 
-512 1:-0.446809 2:0.0909091 3:-1 
-512 1:-0.404255 2:0.0909091 3:-0.6 
-512 1:-0.361702 2:0.272727 3:-0.6 
-512 1:-0.361702 2:0.454545 3:-1 
-512 1:-0.361702 2:0.636364 3:-0.933333 
-512 1:-0.276596 2:-0.272727 3:-1 
-512 1:-0.191489 2:0.0909091 3:-0.333333 
-512 1:-0.106383 2:-0.818182 3:-0.8 
-512 1:-0.0638298 2:-0.818182 3:-0.866667 
-512 1:-0.0638298 2:1 3:-0.8 
-142.6539548551815 1:0.0212766 2:-0.636364 3:-0.266667 
-512 1:0.0212766 2:0.272727 3:-0.666667 
-512 1:0.106383 2:0.454545 3:-0.8 
-512 1:0.319149 2:-0.272727 3:-0.666667 
-512 1:0.319149 2:0.272727 3:-1 
-512 1:0.361702 2:-1 3:-1 
-160.093749455074 1:0.361702 2:-0.818182 3:-0.133333 
-74.72923981975505 1:0.489362 2:-1 3:-1 
-512 1:0.489362 2:-0.454545 3:-0.866667 
-449.8030702241426 1:0.489362 2:0.454545 
-174.3870800654567 1:0.574468 2:0.0909091 3:-0.466667 
-253.6893606927964 1:0.702128 2:-1 3:-0.733333 
-512 1:0.787234 2:-0.0909091 3:-1 
