svm_type c_svc
kernel_type rbf
gamma 0.125
nr_class 2
total_sv 28
rho -13.7866
label 1 2
nr_sv 17 11
SV
6938.298255794413 1:-0.627907 2:-1 3:-1 
6735.961295040488 1:-0.44186 2:-0.0909091 3:-0.0666667 
8192 1:-0.44186 2:0.0909091 3:-0.866667 
3906.758428426547 1:-0.348837 2:0.0909091 3:-1 
6372.23351107369 1:-0.348837 2:0.636364 3:-0.933333 
1904.600830303853 1:-0.209302 2:-0.454545 3:-0.466667 
8192 1:-0.209302 2:-0.272727 3:-0.866667 
8192 1:-0.209302 2:0.0909091 3:-1 
8192 1:-0.0232558 2:-0.636364 3:-0.733333 
3147.061209053409 1:0.0697674 2:-1 3:-0.933333 
803.934056337431 1:0.0697674 2:-0.818182 3:-0.533333 
95.55781866043688 1:0.116279 2:1 3:-0.8 
7272.629962896024 1:0.209302 2:-0.0909091 3:-1 
2464.30171699412 1:0.348837 2:0.0909091 3:-1 
1735.3390008031 1:0.813953 2:-0.818182 3:-0.466667 
724.4352822244651 1:0.813953 2:-0.0909091 3:-1 
874.4602508758668 1:0.906977 2:0.0909091 3:-1 
-8192 1:-0.44186 2:-0.818182 3:-0.866667 
-8192 1:-0.44186 2:0.0909091 3:-1 
-3069.369591735282 1:-0.395349 2:-0.0909091 3:0.266667 
-6343.34372463584 1:-0.348837 2:0.272727 3:-0.6 
-8192 1:-0.348837 2:0.454545 3:-1 
-8192 1:-0.302326 2:-1 3:-0.866667 
-8192 1:-0.302326 2:-0.272727 3:-0.666667 
-8192 1:-0.162791 2:-0.0909091 3:-1 
-8192 1:0.209302 2:0.0909091 3:-0.933333 
-794.8583021127604 1:0.348837 2:-0.818182 3:0.133333 
-8192 1:0.581395 2:-0.454545 3:-0.866667 
