svm_type c_svc
kernel_type rbf
gamma 0.0078125
nr_class 2
total_sv 32
rho -1.00192
label 1 2
nr_sv 16 16
SV
0.03125 1:-1 2:-0.818182 3:-0.913043 
0.03125 1:-0.869565 2:-0.636364 3:-0.956522 
0.03125 1:-0.565217 2:-0.818182 3:-0.652174 
0.03125 1:-0.521739 2:-1 3:-1 
0.03125 1:-0.391304 2:0.636364 3:-1 
0.03125 1:-0.304348 2:0.454545 3:-0.478261 
0.03125 1:-0.217391 2:0.454545 3:-1 
0.03125 1:-0.173913 2:-1 3:-0.956522 
0.03125 2:0.636364 3:1 
0.03125 1:0.0434783 2:1 3:-0.869565 
0.03125 1:0.0434783 2:1 3:-0.0434783 
0.03125 1:0.304348 2:-0.818182 3:-1 
0.03125 1:0.391304 2:-0.454545 3:-0.608696 
0.03125 1:0.478261 2:-0.818182 3:-0.913043 
0.03125 1:0.521739 2:-1 3:-0.956522 
0.03125 1:1 2:0.272727 3:-0.869565 
-0.03125 1:-0.521739 2:-0.818182 3:-1 
-0.03125 1:-0.478261 2:0.0909091 3:-1 
-0.03125 1:-0.434783 2:-1 3:-0.608696 
-0.03125 1:-0.391304 2:0.272727 3:-0.73913 
-0.03125 1:-0.347826 2:1 3:-0.869565 
-0.03125 1:-0.217391 2:0.0909091 3:-0.565217 
-0.03125 1:-0.173913 2:-0.0909091 3:-0.434783 
-0.03125 1:-0.130435 2:-0.818182 3:-0.434783 
-0.03125 1:-0.0434783 2:-1 3:-0.826087 
-0.03125 1:-0.0434783 2:-0.818182 3:-0.869565 
-0.03125 1:-0.0434783 2:-0.0909091 3:0.0434783 
-0.03125 2:0.272727 3:-0.782609 
-0.03125 2:0.818182 3:-0.695652 
-0.03125 1:0.0869565 2:0.454545 3:-0.869565 
-0.03125 1:0.478261 2:-1 3:-1 
-0.03125 1:0.521739 2:-0.454545 3:-0.434783 
