svm_type c_svc
kernel_type rbf
gamma 0.0078125
nr_class 3
total_sv 15
rho 0.000252564 -0.000358493 0.000576306
label 1 2 3
nr_sv 5 5 5
SV
0.03125 0.03125 1:-1 2:0.0588235 3:-0.916667 4:-0.913043 
0.03125 0.03125 1:-0.68 2:-0.176471 3:-1 4:-1 
0.03125 0.03125 1:-0.6 2:0.529412 3:-0.875 4:-0.913043 
0.03125 0.03125 1:-0.44 2:0.411765 3:-0.875 4:-1 
0.03125 0.03125 1:-0.28 2:1 3:-0.916667 4:-1 
-0.03125 0.03125 1:-0.6 2:-1 3:-0.25 4:-0.217391 
-0.03125 0.03125 1:-0.28 2:-0.882353 3:0.333333 4:-0.130435 
-0.03125 0.03125 1:-0.12 2:-0.882353 3:-0.0416667 4:-0.304348 
-0.03125 0.03125 1:-0.12 2:-0.529412 3:0.25 4:-0.0434783 
-0.03125 0.03125 1:0.2 2:-0.647059 3:0.458333 4:-0.130435 
-0.03125 -0.03125 1:-0.12 2:-1 3:0.583333 4:0.565217 
-0.03125 -0.03125 1:0.36 2:-0.0588235 3:1 4:1 
-0.03125 -0.03125 1:0.76 2:-0.176471 3:0.958333 4:0.826087 
-0.03125 -0.03125 1:0.84 2:-0.294118 3:0.75 4:0.652174 
-0.03125 -0.03125 1:1 2:-0.411765 3:0.958333 4:0.652174 
