svm_type c_svc
kernel_type rbf
gamma 0.0078125
nr_class 3
total_sv 18
rho -0.0200336 0.0441095 0.440611
label 1 2 3
nr_sv 3 8 7
SV
19.25966440581579 0 1:-0.666667 2:0.2 3:-0.692308 4:-0.916667 
48.68194024994518 35.55104277635221 1:-0.533333 2:-0.2 3:-0.807692 4:-0.916667 
0.04981970861140395 0 1:-0.2 2:0.3 3:-0.923077 4:-0.916667 
-6.913705805352702 0 1:-0.133333 2:-0.2 3:0.153846 
-0 89.30892750743129 1:-0.0666667 2:-0.4 3:0.307692 
-61.07771855901967 0 1:-0.0666667 2:-0.2 3:0.192308 4:-0.0833333 
-0 128 1:0.0666667 3:0.423077 4:0.416667 
-0 128 1:0.2 2:-0.4 3:0.384615 4:-0.0833333 
-0 128 1:0.2 2:-0.2 3:0.346154 4:0.0833333 
-0 128 1:0.6 2:-0.1 3:0.269231 4:0.0833333 
-0 128 1:0.666667 2:-0.4 3:0.423077 4:0.0833333 
-0 -0.6733469162131548 2:-0.5 3:0.538462 4:0.5 
-12.1695352180351 -128 1:0.133333 2:-1 3:0.5 4:0.166667 
-23.38150755831712 -128 1:0.133333 2:-0.2 3:0.423077 4:0.416667 
-0 -128 1:0.333333 2:-0.5 3:0.461538 4:0.416667 
-0 -128 1:0.333333 2:-0.4 3:0.538462 4:0.166667 
-0 -128 1:0.466667 3:0.538462 4:0.583333 
-0 -88.63558059121814 1:0.933333 2:-0.2 3:0.807692 4:0.25 
