svm_type c_svc
kernel_type rbf
gamma 0.5
nr_class 3
total_sv 14
rho -0.151702 -0.0350229 -0.75284
label 1 2 3
nr_sv 3 5 6
SV
1.190283601151266 0.9895547438242254 1:-0.939394 2:-0.875 3:-0.898305 4:-0.909091 
0.2581119106451739 0 1:-0.636364 3:-0.79661 4:-1 
0.8750346940434537 0.8676871999624657 1:-0.575758 2:1 3:-0.694915 4:-0.818182 
-0.9347404893592897 0.897479368570296 1:-0.515152 2:-0.375 3:-0.0169492 4:0.0909091 
-0 7.524845608621384 1:-0.333333 2:-0.875 3:0.0169492 4:2.22045e-016 
-0.8122712384555945 0 1:-0.030303 2:-1 3:0.0169492 4:-0.272727 
-0 26.76774128956694 1:0.393939 3:0.355932 4:0.363636 
-0.5764184780250092 0 1:0.393939 2:0.125 3:0.152542 4:0.0909091 
-0.922608197297688 -4.007627614971223 1:-0.030303 2:-1 3:0.355932 4:0.181818 
-0 -21.5954222377743 1:0.0909091 2:-0.25 3:0.288136 4:0.454545 
-0 -1.536718557614055 1:0.272727 3:0.423729 4:0.636364 
-0.4962858062327458 -0 1:0.393939 2:0.125 3:0.559322 4:1 
-0 -8.050297856399052 1:0.636364 3:0.661017 4:0.727273 
-0.4383479402562573 -0 1:1 2:-0.5 3:1 4:0.909091 
