svm_type c_svc
kernel_type rbf
gamma 0.5
nr_class 3
total_sv 26
rho 0.102027 0.125774 -0.437581
label 1 2 3
nr_sv 4 11 11
SV
1.643035500780543 0.8859095488572335 1:-1 2:-0.176471 3:-0.859649 4:-0.916667 
0.07093794386714319 0 1:-0.636364 2:0.529412 3:-0.789474 4:-0.583333 
0 0.08180317941141466 1:-0.393939 2:1 3:-0.894737 4:-0.75 
0.8958093442047396 0.7991500997616235 1:-0.212121 2:0.882353 3:-0.754386 4:-0.833333 
-1.628994515607119 0 1:-0.69697 2:-0.764706 3:-0.192982 4:-0.25 
-0 1.724530556508426 1:-0.393939 2:-0.0588235 3:0.22807 4:0.166667 
-0 2 1:-0.333333 2:-0.882353 3:0.0526316 
-0 2 1:-0.272727 2:-0.0588235 3:0.22807 4:0.166667 
-0 2 1:-0.0909091 2:0.176471 3:0.333333 4:0.416667 
-0.6230538949774409 0.8021572054832944 1:-0.030303 2:0.411765 3:0.22807 4:0.25 
-0 2 1:0.030303 2:-0.176471 3:0.298246 4:0.0833333 
-0 2 1:0.393939 2:0.0588235 3:0.298246 4:0.166667 
-0 2 1:0.454545 2:-0.294118 3:0.333333 4:0.0833333 
-0 2 1:0.515152 2:0.0588235 3:0.368421 4:0.166667 
-0.3577343782678661 0 1:0.575758 2:0.176471 3:0.298246 4:0.0833333 
-0 -1.805380137426477 1:-0.151515 2:-0.411765 3:0.438596 4:0.5 
-0 -2 1:-0.0909091 2:-0.0588235 3:0.438596 4:0.416667 
-0.6321818796853325 -2 1:-0.030303 2:-1 3:0.403509 4:0.166667 
-0.3953488418902963 -2 1:-0.030303 2:-0.0588235 3:0.333333 4:0.416667 
-0 -2 1:0.030303 2:-0.0588235 3:0.368421 4:0.416667 
-0 -2 1:0.151515 2:-0.294118 3:0.438596 4:0.166667 
-0 -2 1:0.212121 2:0.0588235 3:0.578947 4:0.416667 
-0 -2 1:0.272727 2:0.176471 3:0.438596 4:0.583333 
-0.541049543591304 -0.1430542082853121 1:0.69697 2:0.647059 3:0.789474 4:1 
-0 -0.5782534162799319 1:0.757576 2:-0.176471 3:0.859649 4:0.416667 
-0.1982825628633389 -0 1:1 2:-0.294118 3:1 4:0.583333 
