svm_type c_svc
kernel_type rbf
gamma 0.5
nr_class 3
total_sv 23
rho -0.1486 0.0181409 -0.219712
label 1 2 3
nr_sv 5 10 8
SV
1.119004208898182 0.9382718971063155 1:-1 2:-1 3:-0.898305 4:-0.818182 
0 0.2669997724492551 1:-0.705882 2:0.263158 3:-0.79661 4:-0.545455 
0.9966441386981911 0 1:-0.647059 2:0.0526316 3:-0.762712 4:-0.636364 
0.4215843614009151 0.7714211275591331 1:-0.411765 2:1 3:-0.864407 4:-0.909091 
0 0.01456679783674178 1:-0.235294 2:0.789474 3:-0.932203 4:-0.909091 
-0 2.863883518317545 1:-0.411765 2:-1 3:0.0169492 4:0.0909091 
-1.693316985514959 0 1:-0.411765 2:-0.894737 3:-0.0508475 4:-0.0909091 
-0 1.313451328717037 1:-0.352941 2:-0.578947 3:0.0847458 4:0.0909091 
-0 4.236570594532233 1:-0.176471 2:-0.263158 3:0.0847458 4:0.272727 
-0.8439157234823285 1.324032524761909 1:-0.117647 2:0.157895 3:0.186441 4:0.363636 
-0 1.408905035216702 1:0.0588235 2:-1 3:0.152542 4:0.0909091 
-0 8 1:0.0588235 2:0.0526316 3:0.254237 4:0.363636 
-0 8 1:0.294118 2:-0.263158 3:0.355932 4:0.454545 
-0 4.800630233145262 1:0.352941 2:-0.473684 3:0.288136 4:0.181818 
-0 0.001139580455973333 1:0.411765 2:-0.157895 3:0.322034 4:0.272727 
-0.448972356531391 -0 1:-0.294118 2:-0.789474 3:0.355932 4:0.727273 
-0.1191666087122552 -8 1:-0.117647 2:-0.263158 3:0.288136 4:0.545455 
-0.4467906400394026 -3.610357461402002 1:-0.0588235 2:-0.684211 3:0.559322 4:0.181818 
-0 -8 1:-0.0588235 2:-0.263158 3:0.322034 4:0.545455 
-0 -8 1:0.0588235 2:-0.473684 3:0.389831 4:0.272727 
-0 -2.350055280747214 1:0.588235 2:-0.0526316 3:0.694915 4:0.545455 
-0.2954233076599059 -0 1:0.882353 2:-0.684211 3:1 4:1 
-0.6809066820084907 -1.988200072997445 1:1 2:0.578947 3:0.830508 4:0.727273 
