svm_type c_svc
kernel_type rbf
gamma 0.0078125
nr_class 3
total_sv 12
rho -0.0132099 0 0.640515
label 1 2 3
nr_sv 2 5 5
SV
13.87871828024257 0 1:-0.757576 2:-0.166667 3:-0.854545 4:-1 
122.9774254081847 44.50862862554811 1:-0.69697 2:0.0833333 3:-0.818182 4:-0.73913 
-136.8561436884273 0 1:-0.69697 2:-0.583333 3:-0.345455 4:-0.217391 
-0 186.4422797950631 1:-0.515152 2:-0.166667 3:0.2 4:0.130435 
-0 512 1:0.151515 2:-0.333333 3:0.236364 4:0.130435 
-0 512 1:0.272727 2:-0.166667 3:0.381818 4:0.304348 
-0 354.9155009948992 1:0.272727 2:-0.0833333 3:0.272727 4:0.130435 
-44.50862862554811 -512 1:-0.151515 2:-0.166667 3:0.309091 4:0.391304 
-0 -512 1:-0.030303 2:-0.333333 3:0.309091 4:0.391304 
-0 -22.68288856123896 1:0.030303 2:-0.583333 3:0.381818 4:0.478261 
-0 -6.674892228723408 1:0.0909091 2:-0.0833333 3:0.563636 4:0.391304 
-0 -512 1:0.575758 2:-0.166667 3:0.672727 4:0.217391 
