svm_type c_svc
kernel_type rbf
gamma 0.125
nr_class 6
total_sv 46
rho 0.0302849 0.128768 0.286453 -0.097573 0.600202 0.0788116 0.426091 -0.652744 0.745093 0.438963 -0.96056 0.980447 -0.983929 0.62496 1.12091
label 0 1 2 3 4 5
nr_sv 3 7 6 16 2 12
SV
0.8409756344731669 1.289016807126384 1.070878423924214 0.2946902361823426 1.339828651052343 1:-1 2:-1 3:0.5 5:-1 9:1 10:-0.5 
1.534745225539752 1.70733674257866 2 1.499143650228024 2 1:-1 2:-0.5 3:1 4:-0.5 5:-1 7:1 8:-0.5 9:-0.142857 10:-0.5 
2 2 2 2 2 2:-0.5 3:-1 4:0.5 5:-1 7:0.5 8:0.5 9:0.428571 10:-0.5 
-1.212241469317578 2 0 0.3225581409728937 0.992648987500125 1:-1 2:-1 3:-1 4:0.5 5:-1 6:-1 7:-1 8:0.5 9:-0.142857 10:-0.5 
-0 0.6841955450842798 2 0 1.208737621570363 1:-1 2:-1 3:-0.5 4:-1 5:-1 6:-1 7:-0.5 8:1 9:-1 10:-0.5 
-0 0.07541491091825268 1.946364872866694 0 0 1:-1 2:-1 3:-0.5 4:0.5 5:-1 6:-1 7:-0.5 8:1 9:-0.428571 10:-0.5 
-0 1.051582042804534 2 0 2 1:-1 2:-1 5:-1 6:-1 7:-1 8:0.5 9:-0.428571 10:-0.5 
-0.4034162310475663 2 2 0.8721564282395899 2 1:-1 2:-1 3:0.5 5:-0.5 6:-1 7:-0.5 9:-0.714286 10:-0.5 
-1.439638775862936 2 2 1.415783640079539 2 2:-1 3:-0.5 5:-0.5 6:-1 7:0.5 8:1 9:-0.714286 10:-0.5 
-1.320424383784839 2 2 1.389501790707977 2 2:-1 3:0.5 4:-0.5 5:-1 6:-1 8:-0.5 9:-1 10:-0.5 
-1.265273809642204 -2 2 1.325147794015774 2 1:-1 2:-1 4:-0.5 5:-0.5 6:-1 7:-0.5 9:-0.714286 10:-0.5 
-0.225344762777301 -2 2 0 2 1:-1 2:-0.5 5:-1 6:-1 7:-0.5 8:-0.5 9:-1 10:-0.5 
-0.9616173868517222 -1.295322428089598 2 0.4936423208119828 2 2:-0.5 3:-1 4:0.5 5:-1 7:-0.5 9:-0.428571 10:-0.5 
-1.939439964534776 -2 2 0.8785104976925523 2 2:-0.5 4:0.5 5:-1 7:0.5 8:1 9:-0.714286 10:-0.5 
-0.5732624937611961 -0.9052711570151422 2 0 0.7890751935989032 3:-1 5:-1 7:-0.5 8:1 9:-0.142857 10:-0.5 
-0.03141513213784537 -1.610598913702326 2 1.302699387479692 2 1:1 3:0.5 5:-0.5 6:-1 7:-0.5 9:-0.714286 10:-0.5 
-0.4114697756439616 -0.146875688084181 -0 0 0 1:-1 2:-1 3:0.5 5:0.5 7:-1 9:-0.714286 10:-1 
-0.4306461755353297 -2 -0.5978633693717649 0.3502738984036015 2 1:-1 2:-1 3:1 4:-0.5 5:-1 6:-1 7:-0.5 8:0.5 9:-1 10:-1 
-0 -1.019670465586955 -0 0.2735001346266917 2 1:-1 2:-0.5 3:0.5 4:-1 5:-0.5 6:-1 7:-1 8:0.5 9:-1 10:-0.5 
-0 -2 -2 0.02047192826058001 2 1:-1 2:-0.5 3:0.5 4:-0.5 5:-0.5 6:-1 7:-1 9:-0.714286 10:-0.5 
-0.3411889082388489 -0.5469792801087142 -0 0 2 1:-1 2:-0.5 3:1 5:-0.5 6:-1 8:0.5 9:-1 10:-0.5 
-0 -0 -0 0 1.149297128259365 2:-1 4:-1 5:1 6:-1 7:-1 8:-1 9:-1 10:-0.5 
-0 -2 -0.8037442090003873 0 0 2:-1 5:-0.5 6:-1 8:0.5 9:-0.714286 10:-0.5 
-0.6409892755418192 -0 -1.670618723271593 0.7227748980742363 1.141400404786425 2:-1 3:0.5 5:-0.5 8:-0.5 9:-1 10:-0.5 
-0 -0.2402175277330738 -0 0 1.742123473990001 2:-1 3:1 4:0.5 5:0.5 6:-1 7:-1 8:-1 9:-1 10:-0.5 
-1.893995861766431 -1.872770419017686 -2 0.05531157774740853 0.4912451719750947 2:-0.5 3:-0.5 4:-0.5 5:-1 7:0.5 8:0.5 9:-0.714286 10:-0.5 
-0 -2 -2 0.9939719521651338 1.495116643580341 2:-0.5 3:-0.5 5:-0.5 6:-1 8:0.5 9:-0.714286 10:-0.5 
-0 -0 -0 0.1831955568354351 0 2:-0.5 5:0.5 6:-1 7:-0.5 9:-1 10:-0.5 
-0.3017302376309801 -0 -0 1.026392067931382 0.9461886818587477 2:-0.5 5:0.5 8:0.5 9:-0.428571 10:-0.5 
-0.1588929723039555 -0 -0 0 2 2:-0.5 3:0.5 4:0.5 5:0.5 6:-1 7:0.5 8:-1 9:-1 10:-0.5 
-0.02896512785784047 -0.1198514923360842 -1.759534163785481 0.3054957270804896 2 3:-0.5 4:0.5 5:0.5 6:-1 7:-1 9:-0.428571 10:-0.5 
-0.8630000894050475 -0 -1.168239534570775 0.06861225887504135 2 2:0.5 3:-0.5 5:-1 6:-1 7:1 9:-0.714286 10:-0.5 
-2 -2 -2 -2 2 2:-0.5 3:-0.5 4:0.5 5:0.5 8:0.5 9:-0.714286 10:-0.5 
-1.793833886410367 -2 -2 -2 2 2:-0.5 3:0.5 4:-0.5 5:-1 6:-1 7:-0.5 9:-1 10:-0.5 
-1.962175261392939 -2 -2 -2 -0.3768193683555345 1:-1 2:-1 3:-0.5 5:-1 6:-1 7:0.5 8:-0.5 9:-0.714286 10:-0.5 
-0 -0.1704443840093983 -0 -2 -0 1:-1 2:-1 3:1 4:-1 5:-0.5 6:-1 7:-0.5 8:-1 9:-1 10:-0.5 
-0.7841854672309172 -2 -1.275728163321342 -2 -0.6695227578835586 1:-1 2:-1 3:1 4:-0.5 5:-1 6:-1 7:-1 8:0.5 9:-0.714286 10:-0.5 
-0 -0.748020223753209 -0 -0.7295471981880356 -0 1:-1 2:-1 3:1 4:-0.5 5:-0.5 6:-1 9:-1 10:1 
-0 -2 -1.953245307449601 -2 -0.09313791202531982 1:-1 2:-0.5 3:0.5 5:-0.5 6:-1 7:-1 9:-0.714286 10:-0.5 
-0.03312535258516677 -0 -0 -1.423082706495387 -0 1:-1 2:1 3:1 5:-1 6:-1 7:-1 8:1 9:-1 
-0.5447126858516769 -1.106710945810441 -0.3886685957209838 -2 -0.6513935590728809 2:-1 4:0.5 5:1 6:-1 7:0.5 9:-0.428571 10:-0.5 
-1.085950725455602 -0.1201521235968508 -0.7936934312391273 -1.045454630978444 -0.2139755790510638 2:-1 3:1 4:0.5 5:-0.5 6:1 7:-0.5 8:-1 9:-0.428571 10:1 
-0 -0.9390784870534679 -1.246405027516891 -2 -1.133717540034326 2:-0.5 3:0.5 4:-0.5 5:0.5 6:-1 7:-0.5 9:-0.714286 10:-0.5 
-0 -0 -0 -1.767286968788107 -0 2:-0.5 3:1 5:1 6:-1 9:-1 10:1 
-0.5323829241533534 -0.980987527669057 -1.634736277760373 -2 -0.5360071618676818 2:1 3:-0.5 5:-1 6:-1 7:0.5 9:-1 10:-0.5 
-0.3972962343826874 -0.1359929171780648 -1.496598390590584 -2 -0.3254261217096341 2:1 3:-0.5 4:1 5:-0.5 6:-1 7:-0.5 9:-0.428571 10:-0.5 
