svm_type c_svc
kernel_type rbf
gamma 0.5
nr_class 6
total_sv 38
rho 0.104746 0.304957 0.529354 -0.0219377 0.47484 0.107768 0.643232 -0.150479 0.683351 0.398932 -0.498135 0.331838 -0.924395 -0.0972643 0.697461
label 0 1 2 3 4 5
nr_sv 2 6 5 13 2 10
SV
1.304541493715735 1.426566568900301 2 1.116504015355815 2 1:-1 2:-0.5 5:-1 7:1 8:-0.5 9:-0.142857 10:-0.5 
1.119559952783083 1.368239140723808 1.547606264108695 0.9977790866653777 1.503434583233769 3:-1 4:1 6:-1 7:-1 8:-0.5 9:1 
-0.5965645779315542 0.6997351852651719 1.127791778309685 0.5755483458904193 1.099277143906402 1:-1 2:-1 3:-1 4:0.5 5:-1 6:-1 7:0.333333 8:1 9:-0.428571 10:-0.5 
-0.4284857347442858 0.8936323032010526 0.73578476961048 0.5592581193005983 0.7277056299638541 1:-1 2:-1 3:-0.5 4:-1 5:-1 6:-1 7:-0.333333 8:1 9:-1 10:-0.5 
-0.330342902106653 1.054916549198598 1.154442197211653 0.3298733340967824 2 1:-1 2:-1 5:-0.5 6:-1 7:-1 9:-0.714286 10:-0.5 
-0.6095404927667312 1.694055472134256 2 1.130039860372092 2 1:-1 2:-1 3:0.5 5:-0.5 6:-1 7:-0.333333 9:-0.714286 10:-0.5 
-0.4591677389495946 0.3113673174807923 0.5129008650687517 0.2524534248653651 0.3519875211868309 1:-1 2:-0.5 3:-0.5 4:-0.5 5:-1 6:-1 7:0.333333 8:1 9:-0.142857 10:-0.5 
-0 0.7037153658151358 0.6421859467358788 0.2585337795230627 1.135240579809247 1:-1 2:-0.5 4:-0.5 5:-0.5 6:-1 7:-0.333333 8:1 9:-0.428571 10:-0.5 
-0.7328933042987438 -2 2 1.209981645425578 2 1:-1 2:-1 4:-0.5 5:-0.5 6:-1 7:-0.333333 9:-0.714286 10:-0.5 
-0.6466465175267016 -1.089067632201168 1.314156485353685 0.5243682050040951 1.574691832245483 1:-1 2:1 3:-0.5 4:-1 5:-1 6:-1 7:-1 8:1 9:-1 10:-0.5 
-0.2557606137206627 -1.069056436887338 2 0.4355236036134865 2 2:-0.5 3:0.5 4:0.5 5:0.5 6:-1 7:-0.333333 8:0.5 9:-0.428571 10:-0.5 
-0.4870482785135692 -0.3440738620197773 1.816897098715838 0.9007582962278168 0.9395193892592759 4:0.5 5:0.5 6:-1 7:-0.333333 8:0.5 9:-0.428571 10:-0.5 
-0.6724569955644316 -0.8552242619867237 1.381426318154757 0.8984214450556849 2 1:1 3:-0.5 4:-0.5 5:-1 6:-1 7:-0.333333 8:-0.5 9:-0.428571 10:-0.5 
-0.2045585396894892 -1.199978310154915 -1.142078120880656 0.1339954475834023 1.30309190082934 1:-1 2:-1 4:-0.5 5:0.5 6:-1 7:-1 9:-1 10:-0.5 
-0.1228963159726706 -0.5386355870849059 -0.2902691969059278 0 1.006984993598477 1:-1 2:-1 5:0.5 6:-1 7:-1 8:0.5 9:-1 10:-1 
-0.2647648033365158 -0.6119427679637332 -1.337937075885982 0 1.599452296377932 1:-1 2:-0.5 4:1 5:0.5 6:-1 7:-0.333333 8:0.5 9:-0.714286 10:-0.5 
-0.9657728223592148 -0.5435630559441129 -0.5973445403475334 0.2001906390905772 1.541358452946389 1:-1 2:-0.5 3:0.5 4:-0.5 5:-1 6:-1 7:1 9:-0.714286 10:-0.5 
-0 -1.292686784623774 -0.4793417497921682 0.3122849815486061 1.151129286650149 1:-1 2:-0.5 3:1 5:-0.5 6:-1 7:0.333333 8:0.5 9:-1 10:-0.5 
-0.1720762246116772 -0.09243678685684935 -0.3319288168345748 0.4427503028358588 0 2:-1 3:-0.5 5:1 6:-1 7:0.333333 9:-0.714286 10:-0.5 
-0.6935050170652481 -0.6630700941454408 -0.5831657962953518 0.6358104585858758 1.077147680702918 2:-1 5:-0.5 7:0.333333 9:-0.428571 10:-0.5 
-0 -0 -0 0 0.6892424432028802 2:-1 5:1 6:-1 7:0.333333 9:-0.714286 10:-0.5 
-0.257387059671701 -0.2690952944175431 -0.2054687900350096 0.305838756235713 0.1663167422922061 2:-1 4:0.5 5:-0.5 7:1 8:1 9:-0.714286 10:-0.5 
-0.3354615299444039 -0.7181149334760513 -0.6954258543554548 0.7226871247306594 1.896838288121183 2:-1 3:1 5:-1 6:-1 7:-0.333333 8:-1 9:-1 10:-0.5 
-0.1735814022660321 -0.03503304399283745 -1.034863856877395 1.026237163663065 0.6289868658086347 2:-0.5 4:1 5:0.5 7:-0.333333 8:0.5 9:-1 10:-0.5 
-0 -0 -1.691296050912649 0.2202051257262426 1.625007923111164 2:-0.5 3:0.5 5:0.5 6:-1 7:0.333333 9:-0.714286 10:-0.5 
-0.3576025491917421 -0.208548898276286 -0.1233600531015792 0 0.9488544800092333 3:0.5 4:-0.5 5:1 6:-1 7:0.333333 8:-1 9:-1 10:-0.5 
-1.059316741524347 -1.255130938886239 -1.969053195326662 -2 1.925352515982414 2:-0.5 3:-0.5 4:0.5 5:0.5 7:0.333333 8:0.5 9:-0.714286 10:-0.5 
-1.054966360496846 -1.850575925162081 -2 -2 2 2:-0.5 3:0.5 4:-0.5 5:-1 6:-1 7:-0.333333 9:-1 10:-0.5 
-0.3396041546736084 -0.9041770948210904 -1.450069707880736 -2 -0.1853949926359199 1:-1 2:-1 3:0.5 4:0.5 5:0.5 6:-1 7:-1 8:0.5 9:-0.428571 10:-0.5 
-0.2936809063937909 -1.163762341270996 -0.8524104493546326 -1.265457506499623 -0.6218724862679351 1:-1 2:-1 3:1 4:-0.5 5:-1 6:-1 7:-1 8:0.5 9:-0.714286 10:-0.5 
-1.035969824728186 -1.210975534905125 -0.8490386252374952 -1.611277456233953 -0.3600106863773082 1:-1 2:-0.5 5:-1 6:-1 7:0.333333 8:-0.5 9:-0.714286 10:-0.5 
-0 -2 -0.1129622756832158 -0.1086856127324772 -0 1:-1 2:-0.5 3:0.5 5:-0.5 6:-1 7:-1 9:-0.714286 10:-0.5 
-0.1993636868337842 -0.2538959724404897 -0.2106856855826795 -1.397267350789994 -0.1270945813111633 1:-1 2:-0.5 3:0.5 4:0.5 5:-0.5 6:-1 7:0.333333 8:-0.5 9:-0.714286 
-0.4303362000094247 -0.510329314335539 -0.7217897432478598 -0.7208646448432874 -0.218287084553433 1:-1 3:-0.5 5:-1 7:-1 9:-0.714286 10:-0.5 
-0.0761241508174592 -0.3041909908114803 -0.9198271191519962 -2 -0.3838092819592137 2:-1 3:0.5 4:0.5 5:0.5 6:-1 7:-0.333333 8:-0.5 9:-1 10:-0.5 
-0.5363315709334562 -0.3016583101935209 -0.63844460592049 -1.125736532105122 -0.3100690968919067 2:-1 3:1 4:0.5 5:-0.5 6:1 7:-0.333333 8:-1 9:-0.428571 10:1 
-0.4052761944247419 -0.1401753484187706 -0.7589830094456534 -1.575788621486574 -0.2109487041183647 2:-1 3:1 4:0.5 5:1 6:-1 7:0.333333 8:-0.5 9:-0.428571 10:-0.5 
-0.1867478944193168 -0.5250459676693211 -2 -1.829333628959477 -1.507865601867169 4:-0.5 5:-0.5 6:-1 7:-0.333333 9:-0.714286 10:-0.5 
