svm_type c_svc
kernel_type rbf
gamma 0.00012207
nr_class 6
total_sv 68
rho 0.399563 -0.0403938 0.136962 -0.092252 0.17392 -0.137919 -0.118594 -1.10984 -0.244852 -0.152924 -0.88108 -1.60229 -1.81998 -0.386416 1.58998
label 0 1 2 3 4 5
nr_sv 4 12 10 21 3 18
SV
925.0349510998849 1552.115843987795 604.5430637365683 0 1213.624128860483 1:-1 2:-1 3:1 4:-1 5:-1 6:-1 7:-1 8:-1 9:1 10:-0.5 
2008.643635407836 1766.09696467082 2048 2048 2048 1:-1 2:-0.5 5:-1 6:-0.5 7:0.5 8:-0.5 9:-0.142857 10:-0.5 
0 193.8641609453016 1112.95325534353 507.5108779033354 0 2:-1 3:0.5 5:-1 6:1 7:-0.5 8:-0.5 9:0.142857 10:-0.5 
2048 2048 2048 1906.713586920265 2048 2:-0.5 3:-0.5 4:0.5 5:-1 7:0.5 8:0.5 9:0.142857 10:-0.5 
-1746.813372851114 2048 1798.692601283032 0 1559.234677969325 1:-1 2:-1 3:-1 4:0.5 5:-1 6:-1 7:-1 8:0.5 9:-0.142857 10:-0.5 
-0 2048 2048 932.6324468697185 2048 1:-1 2:-1 3:-0.5 4:-0.5 5:-1 6:-1 7:-1 8:-1 9:-1 10:-0.5 
-0 0 2048 0 1638.429697556383 1:-1 2:-1 3:-0.5 4:-0.5 5:0.5 6:-1 7:-0.5 8:0.5 9:-0.714286 10:-0.5 
-0 677.0369590806679 2048 0 2048 1:-1 2:-1 3:-0.5 4:0.5 5:-1 6:-1 7:-0.5 8:1 9:-0.428571 10:-0.5 
-0 0 2048 0 2048 1:-1 2:-1 5:-0.5 6:-1 7:-1 9:-0.714286 10:-0.5 
-850.0968944440865 0 2048 691.6821897473578 731.8791500046217 1:-1 2:-1 5:0.5 7:0.5 8:1 9:-0.428571 10:1 
-0 1183.286412011663 2048 61.24156352800746 2048 1:-1 2:-0.5 3:0.5 4:-1 5:-0.5 6:-1 7:-1 8:-0.5 9:-1 10:-0.5 
-0 2048 2048 362.4437998549163 2048 1:-1 2:-0.5 3:0.5 4:0.5 5:-0.5 6:-1 7:-1 9:-0.714286 10:-0.5 
-0 2048 2048 2048 2048 2:-1 3:-0.5 5:-0.5 6:-1 7:0.5 8:1 9:-0.714286 10:-0.5 
-0 501.2045184819941 2048 0 2048 2:-1 4:-0.5 5:1 6:-0.5 8:0.5 9:-0.714286 10:-0.5 
-336.7683192125208 2048 2048 0 2048 2:-1 4:1 5:0.5 6:-1 8:0.5 9:-0.142857 10:-0.5 
-2048 418.2252903787958 2048 2048 2048 2:-1 3:0.5 4:-0.5 5:-1 6:-1 8:-0.5 9:-1 10:-0.5 
-2048 -2048 2048 251.3058924234984 2048 1:-1 2:-1 3:1 4:-0.5 5:-0.5 6:-1 7:-1 8:-1 9:-0.428571 10:-0.5 
-0 -2048 2048 3.611621096668758 2048 1:-1 2:-0.5 3:-1 4:1 5:-0.5 6:-1 8:0.5 9:-0.714286 10:-0.5 
-427.8627982004447 -2048 2048 2048 2048 1:-1 2:-0.5 5:-1 6:-1 7:-0.5 8:-0.5 9:-1 10:-0.5 
-0 -392.7353080666131 0 0 2048 1:-1 2:1 3:-0.5 4:-1 5:-1 6:-1 7:-1 8:1 9:-1 10:-0.5 
-0 -0 515.5641763137701 0 2048 1:-1 2:1 3:0.5 5:-1 6:-1 7:-1 8:-1 9:-1 10:-0.5 
-0 -2048 2048 792.1368946381682 2048 2:-1 4:0.5 5:1 6:-1 7:-0.5 8:0.5 9:-1 10:-0.5 
-1464.675241707046 -2048 2048 358.2911869638915 1081.227167926691 2:-0.5 3:-1 4:0.5 5:-1 6:-0.5 7:-0.5 9:-0.428571 10:-0.5 
-1619.538929696426 -2048 2048 462.5316730003788 1261.610236657825 3:-1 5:-1 6:-0.5 7:-0.5 8:1 9:-0.142857 10:-0.5 
-0 -0 2048 1412.639800017658 1702.515250952475 1:1 3:-0.5 4:-0.5 5:-1 6:-1 7:-0.5 8:-0.5 9:-0.428571 10:-0.5 
-0 -339.0178718865071 706.5627462530807 0 0 1:1 3:-0.5 5:-1 6:-1 7:-1 8:0.5 9:-0.428571 10:-0.5 
-0 -2048 -0 0 2048 1:-1 2:-1 5:0.5 6:-1 7:-1 8:0.5 9:-1 10:-1 
-0 -2048 -2048 0 2048 1:-1 2:-1 4:0.5 5:-0.5 6:-1 7:-0.5 9:-0.714286 10:-0.5 
-1411.821447812881 -2048 -2048 0 2048 1:-1 2:-1 3:0.5 5:-0.5 6:-0.5 7:-1 9:-0.714286 10:-0.5 
-0 -2048 -0 0 2048 1:-1 2:-1 3:1 4:-0.5 5:-1 6:-1 7:-0.5 8:0.5 9:-1 10:-1 
-0 -2048 -0 0 2048 1:-1 2:-0.5 3:-1 4:0.5 5:-0.5 6:-1 7:0.5 8:1 9:-0.714286 10:-0.5 
-0 -1648.320823533591 -0 0 2048 1:-1 2:-0.5 3:1 5:-0.5 6:-1 8:0.5 9:-1 10:-0.5 
-1517.690536579824 -2048 -1266.829632229092 0 0 2:-1 3:-1 4:0.5 5:-1 6:-0.5 7:0.5 8:0.5 9:-0.142857 10:-0.5 
-0 -2048 -0 0 0 2:-1 3:-0.5 5:0.5 6:-0.5 7:-0.5 9:-0.714286 10:-0.5 
-0 -0 -0 1357.81826899563 0 2:-1 3:-0.5 4:0.5 5:-1 6:-0.5 7:1 8:1 9:-0.428571 
-0 -367.4307376454451 -1362.177744782797 0 798.9870545265011 2:-1 3:-0.5 4:0.5 5:0.5 6:-1 7:-1 8:0.5 9:-1 10:-0.5 
-1988.65054494816 -127.2870764134783 -0 0 361.7985746315779 2:-1 5:-0.5 6:-0.5 9:-0.428571 10:-0.5 
-0 -1541.62958352715 -946.6340223097631 0 2019.981445992836 2:-1 5:0.5 6:-1 7:-1 8:-0.5 9:-1 10:-0.5 
-0 -1768.272519995416 -40.6150875200303 1530.886905429804 2048 2:-1 3:0.5 4:-1 5:-1 6:-1 9:-1 10:-0.5 
-0 -0 -0 147.0707738308384 0 2:-1 3:0.5 5:-0.5 6:-0.5 8:-0.5 9:-1 10:-0.5 
-0 -2048 -0 353.0446754369868 2048 2:-1 3:0.5 5:0.5 6:-1 7:-0.5 9:-0.714286 10:1 
-0 -0 -0 0 2048 2:-1 3:0.5 4:0.5 5:0.5 6:-1 7:-1 8:-0.5 9:-1 10:-0.5 
-127.0663338746747 -0 -1701.870435725167 1630.360562340682 2048 2:-1 3:1 5:-1 6:-1 7:-0.5 8:-1 9:-1 10:-0.5 
-0 -1374.376125152284 -2048 953.8842924111121 337.4463694080881 2:-0.5 3:-1 5:-1 6:-0.5 7:0.5 8:0.5 9:-0.714286 10:-0.5 
-0 -0 -0 0 889.2879797207133 2:-0.5 3:0.5 5:0.5 6:-1 9:-0.714286 10:-0.5 
-0 -1115.375735015668 -2048 0 2048 3:-0.5 4:0.5 5:0.5 6:-1 7:-1 9:-0.428571 10:-0.5 
-768.267455864559 -0 -2048 170.9345215549469 2048 2:0.5 3:-0.5 5:-1 6:-1 7:1 9:-0.714286 10:-0.5 
-2048 -2048 -2048 -2048 2048 2:-1 3:-0.5 4:0.5 5:-1 6:-0.5 7:0.5 9:-0.714286 10:0.5 
-1987.519632746916 -2048 -1232.517068140263 -2048 2048 2:-1 3:0.5 4:-0.5 5:-1 6:-0.5 7:0.5 9:-1 10:-0.5 
-426.704832076684 -2048 -2048 -2048 2048 2:-0.5 3:0.5 4:-0.5 5:-1 6:-1 7:-0.5 9:-1 10:-0.5 
-2048 -2048 -1138.417451571606 -2048 -1605.565444319983 1:-1 2:-1 3:-0.5 5:-1 6:-1 7:0.5 8:-0.5 9:-0.714286 10:-0.5 
-0 -2048 -2048 -2048 -0 1:-1 2:-1 3:-0.5 4:1 5:-0.5 6:-1 7:-0.5 8:0.5 9:-0.714286 10:-0.5 
-0 -2048 -1017.031385919754 -2048 -105.8530948915668 1:-1 2:-1 4:-1 5:-1 6:-1 7:-1 8:0.5 9:-1 10:-0.5 
-1031.544728272314 -2048 -2048 -2048 -0 1:-1 2:-1 4:-0.5 5:-1 6:-1 7:-1 9:-0.428571 10:-0.5 
-0 -2048 -0 -2048 -0 1:-1 2:-1 5:0.5 6:-1 8:0.5 9:-0.714286 10:-0.5 
-507.0513093444844 -2048 -0 -2004.412551064058 -0 1:-1 2:-1 3:0.5 5:-1 6:-1 7:-1 8:0.5 9:-0.428571 10:-0.5 
-0 -2048 -0 -2048 -0 1:-1 2:-1 3:0.5 4:0.5 5:0.5 6:-1 7:-1 8:0.5 9:-0.428571 10:-0.5 
-0 -128.3714977452643 -0 -0 -711.3014983508833 1:-1 2:-1 3:1 4:-0.5 5:-0.5 6:-1 9:-1 10:1 
-634.7097845410299 -0 -0 -0 -35.6455117437014 1:-1 2:-1 3:1 4:0.5 5:-1 6:-0.5 8:0.5 9:-0.714286 10:1 
-0 -0 -0 -355.0888732156581 -0 1:-1 2:-0.5 3:1 4:-0.5 5:-0.5 6:-1 7:-1 8:0.5 9:-1 10:-0.5 
-0 -0 -2048 -0 -0 1:-1 2:0.5 4:-0.5 5:-1 6:-1 7:-1 9:-0.714286 10:-0.5 
-0 -0 -2048 -2048 -0 1:-1 2:0.5 3:0.5 4:-0.5 5:-0.5 6:-1 7:-0.5 8:-0.5 9:-1 10:-0.5 
-0 -1626.923975020375 -777.2022105043694 -2048 -2048 2:-1 3:0.5 4:0.5 5:-1 6:-1 7:-0.5 8:0.5 9:-1 10:-0.5 
-0 -2048 -0 -2048 -0 2:-1 3:0.5 4:0.5 5:0.5 6:-1 7:-0.5 8:-0.5 9:-1 10:-0.5 
-0 -312.0768806098548 -0 -2048 -523.8363484172954 2:-1 3:1 5:0.5 6:-1 7:-0.5 8:-0.5 9:-1 10:1 
-240.9275430420278 -2048 -1112.701607541261 -2048 -0 2:-0.5 3:0.5 4:-0.5 5:0.5 6:-1 7:-0.5 9:-0.714286 10:-0.5 
-0 -0 -2048 -2048 -0 2:-0.5 3:0.5 4:0.5 5:0.5 6:-1 7:-0.5 9:-1 10:-0.5 
-847.390763660627 -1862.171172154836 -2048 -2048 -1113.79810227657 2:1 3:-0.5 5:-1 6:-1 7:0.5 9:-1 10:-0.5 
