svm_type c_svc
kernel_type rbf
gamma 0.00195313
nr_class 6
total_sv 50
rho 0.0186353 -0.379673 0.241739 -0.370603 0.581053 -8.14064 -4.54755 -1.37785 9.82088 -1.04289 -1.68181 11.4401 -3.68565 7.49728 3.49998
label 0 1 2 3 4 5
nr_sv 3 8 8 15 2 14
SV
0 107.4394711250212 43.36761263515222 29.85638222993167 123.4768817631975 1:-1 2:1 3:-0.5 4:0.5 6:-1 7:0.333333 8:0.5 9:0.428571 10:-0.5 
291.8707152071149 26.00918615547251 306.2333536190174 22.15302426869607 100.7590141147036 2:-0.5 3:-1 4:0.5 5:-1 6:1 7:1 8:0.5 9:0.428571 10:-0.5 
28.40688209730152 64.61637585751561 0 17.76341666387972 23.28871991391548 3:-1 4:1 6:-1 7:-1 8:-0.5 9:1 
-0 0 2048 0 0 1:-1 2:-1 3:-0.5 4:-0.5 5:0.5 6:-1 7:-0.333333 8:0.5 9:-0.714286 10:-0.5 
-0 2048 2048 258.122292180347 2048 1:-1 2:-1 4:-0.5 5:-1 6:-1 7:-1 9:-1 10:-0.5 
-0 0 0 0 1062.969982522981 1:-1 2:-0.5 4:-0.5 5:-0.5 6:-1 7:-0.333333 8:1 9:-0.428571 10:-0.5 
-0 943.875951940246 0 4.694080735786683 603.4068894325101 1:-1 4:-0.5 5:-1 6:-1 7:-1 8:1 9:-0.428571 
-0 1471.535050555767 1198.600373298267 20.33094472306647 121.9267775070804 1:-1 2:1 5:1 6:-1 7:-1 8:0.5 9:-0.714286 10:-0.5 
-276.5867754191678 0 275.3343023894968 0 0 2:-1 3:-1 4:0.5 5:-1 6:1 7:0.333333 8:1 9:-0.428571 10:-0.5 
-0 1285.538413568981 0 115.1186789370717 0 2:-1 3:-0.5 5:-0.5 6:-1 7:1 8:1 9:-0.714286 10:-0.5 
-43.69082188524855 410.1541989796474 1823.587245541748 0 347.6582477544442 2:-1 4:1 5:0.5 6:-1 7:0.333333 8:0.5 9:-0.142857 10:-0.5 
-0 -2048 2048 334.241088318186 2048 1:-1 2:-1 4:-0.5 5:-0.5 6:-1 7:-0.333333 9:-0.714286 10:-0.5 
-16.33204749456881 -1503.389224118361 664.2058085218937 15.84318453756737 183.0975304752753 1:-1 2:1 3:-0.5 4:-1 5:-1 6:-1 7:-1 8:1 9:-1 10:-0.5 
-0 -247.7860542321877 1434.964695646877 0 0 2:-1 3:-0.5 4:-0.5 5:1 6:-1 7:-1 8:0.5 9:-0.428571 10:-0.5 
-0 -0 2048 0 2048 2:-1 5:0.5 6:-1 7:-0.333333 8:-1 9:-1 10:-0.5 
-31.02689620268475 -715.084123945452 559.4136078886685 0 1980.474833449386 2:-0.5 3:-0.5 4:0.5 5:-1 6:-1 7:-0.333333 8:0.5 9:-0.714286 10:-0.5 
-0 -1644.844212748643 2048 70.65933142216615 2048 2:-0.5 3:0.5 4:0.5 5:0.5 6:-1 7:-0.333333 8:0.5 9:-0.428571 10:-0.5 
-138.1786744755995 -0 610.5766241085637 0 0 4:0.5 5:0.5 6:-1 7:-0.333333 8:0.5 9:-0.428571 10:-0.5 
-12.52741496515625 -0 0 242.4499499684776 96.97883930948257 1:1 3:-0.5 4:-0.5 5:-1 6:-1 7:-0.333333 8:-0.5 9:-0.428571 10:-0.5 
-0 -2048 -2048 0 0 1:-1 2:-1 3:-0.5 4:-0.5 5:0.5 6:-1 7:-0.333333 8:0.5 9:-0.428571 10:-0.5 
-0 -1163.272284821193 -0 0 1912.671712439887 1:-1 2:-1 5:0.5 6:-1 7:-1 8:0.5 9:-1 10:-1 
-0 -0 -0 0 2048 1:-1 2:-1 3:0.5 5:0.5 6:-1 7:-1 8:-0.5 9:-0.714286 10:-0.5 
-0 -1007.871976051478 -649.127014613237 109.1709860715657 2048 1:-1 2:-1 3:1 4:-0.5 5:-1 6:-1 7:-0.333333 8:0.5 9:-1 10:-1 
-0 -696.8709975412235 -222.9613565663048 104.4027559483952 2048 1:-1 3:-0.5 5:-0.5 6:-1 7:-0.333333 8:-0.5 9:-0.714286 10:-0.5 
-0 -0 -0 0 2048 2:-1 5:0.5 6:-1 7:-1 8:-0.5 9:-1 10:-0.5 
-0 -513.5326034659593 -129.5521422742117 0 0 2:-1 5:0.5 6:-1 7:1 8:0.5 9:-0.714286 10:-0.5 
-0 -441.8766465729821 -102.8087330272037 30.36692133060677 1948.846420085972 2:-1 4:0.5 5:-0.5 6:1 7:0.333333 9:-0.714286 10:1 
-0 -0 -1155.985111112259 1034.972281416558 1806.769913288074 2:-1 3:0.5 4:-1 5:-1 6:-1 7:0.333333 9:-1 10:-0.5 
-0 -0 -1243.701613238053 284.8969131411272 2048 2:-1 3:0.5 4:0.5 5:0.5 6:-1 7:-1 8:-0.5 9:-1 10:-0.5 
-281.9991111441978 -0 -0 0 0 2:-0.5 3:-1 5:-1 6:1 7:1 8:0.5 9:-0.714286 10:-0.5 
-0 -0 -1813.024765334734 0 0 2:-0.5 5:0.5 6:-1 7:-0.333333 9:-1 10:-0.5 
-25.91761152006716 -0 -0 0 0 3:-1 4:0.5 5:0.5 6:1 7:1 8:0.5 9:-0.714286 10:-0.5 
-41.68424358990471 -1522.097412776676 -2048 163.6203983891799 767.6875833180418 3:-0.5 4:0.5 5:0.5 6:-1 7:-1 9:-0.428571 10:-0.5 
-0 -0 -0 0 1522.451332164387 3:0.5 4:-0.5 5:1 6:-1 7:0.333333 8:-1 9:-1 10:-0.5 
-0.0704769968664537 -0 -47.64303465721577 -238.2133104142475 1178.756105216879 2:-1 3:1 4:-0.5 5:0.5 6:-1 7:-0.333333 8:-1 9:-1 10:1 
-69.702346165641 -398.2659965762719 -615.5505195891813 -1489.216945883185 673.5232452047177 2:-0.5 3:0.5 4:-0.5 5:-1 6:-1 7:-0.333333 9:-1 10:-0.5 
-0 -6.572548193420266 -0 -415.0486538722333 -0 1:-1 2:-1 3:-0.5 5:-1 6:-1 7:1 8:-0.5 9:-0.714286 10:-0.5 
-0 -1500.071787315576 -48.7839241258289 -2048 -223.6489494238564 1:-1 2:-1 4:-1 5:-1 6:-1 7:-1 8:0.5 9:-1 10:-0.5 
-0 -1321.773410863115 -2048 -164.7210006346886 -0 1:-1 2:-1 4:-0.5 5:-1 6:-1 7:-1 9:-0.428571 10:-0.5 
-0 -0 -0 -2048 -0 1:-1 2:-1 3:0.5 4:-0.5 5:0.5 6:-1 7:-1 8:-1 9:-1 10:-0.5 
-0 -0 -0 -1444.800276353355 -251.5994546823282 1:-1 2:-1 3:1 4:-0.5 5:0.5 6:-1 7:-1 8:-1 9:-1 10:-0.5 
-0 -0 -0 -499.8994174446993 -0 1:-1 2:-0.5 3:1 4:-0.5 5:-0.5 6:-1 7:-1 8:0.5 9:-1 10:-0.5 
-88.35370712137743 -102.0468216428539 -132.1700885351979 -1836.940944261708 -0 1:-1 3:-0.5 5:-1 6:1 7:-1 9:-0.714286 10:-0.5 
-0 -635.6849539662684 -0 -0 -0 1:-1 2:1 3:1 5:-1 6:-1 7:-1 8:1 9:-1 
-0 -0 -2048 -2048 -0 2:-1 5:-0.5 6:-1 7:-1 9:-1 10:-0.5 
-78.79279740233214 -617.8123752357816 -1622.741914949852 -2048 -0 2:-1 4:0.5 5:1 6:-1 7:1 9:-0.428571 10:-0.5 
-0 -0 -0 -2048 -0 2:-1 3:0.5 4:0.5 5:0.5 6:-1 7:-0.333333 8:-0.5 9:-1 10:-0.5 
-0 -0 -0 -833.7430423099006 -1177.365970317356 2:-1 3:1 5:0.5 6:-1 7:-0.333333 8:-0.5 9:-1 10:1 
-0 -0 -1832.279200489772 -2048 -0 2:-0.5 3:0.5 4:0.5 5:0.5 6:-1 7:-0.333333 9:-1 10:-0.5 
-80.37811126810694 -0 -672.5760751334944 -715.2736264197794 -199.6649759980557 2:1 3:-0.5 5:-1 6:-1 7:1 9:-1 10:-0.5 
