svm_type c_svc
kernel_type rbf
gamma 0.03125
nr_class 6
total_sv 87
rho -0.583227 -0.864515 -0.885452 -0.20132 -0.130739 -0.502879 -4.25746 -0.392767 -3.08923 -1.93728 -2.77678 0.0390354 1.04611 0.741486 1.43969
label 0 1 2 3 4 5
nr_sv 5 14 12 30 4 22
SV
14.27116614942388 1.341284895078809 5.616260564196416 3.185944187551512 0 1:-1 2:-0.5 3:0.5 5:-1 6:-1 7:0.333333 8:0.5 9:1 10:-0.5 
7.131096716963995 8.177282650166728 4.269400485809844 0.363766654397097 14.59216927570644 1:-1 2:1 3:-0.5 4:0.5 6:-1 7:0.333333 8:0.5 9:0.428571 10:-0.5 
7.883412137988061 8.46730296530033 9.308285234010931 5.030585348698256 7.112845380481773 2:-1 3:0.5 5:-1 6:1 7:-0.333333 8:-0.5 9:0.142857 10:-0.5 
0 7.755295748348943 0.6845606613184773 0.5844904712612467 4.723556030374189 3:-1 4:1 6:-1 7:-1 8:-0.5 9:1 
1.491383826267543 0 0 2.111204385241632 3.030230357961952 2:1 4:0.5 5:-0.5 6:-0.5 7:1 9:0.428571 10:-0.5 
-4.388581189184092 48.45903637991778 14.36748669713128 0 0 1:-1 2:-1 3:-1 4:0.5 5:-1 6:-1 7:-1 8:0.5 9:-0.142857 10:-0.5 
-0 0 116.4316782675748 0 0 1:-1 2:-1 3:-0.5 4:-1 5:-1 6:-1 7:-0.333333 8:1 9:-1 10:-0.5 
-0 0 0 0 21.55226653641284 1:-1 2:-1 3:-0.5 4:0.5 5:-1 6:-1 7:-0.333333 8:1 9:-0.428571 10:-0.5 
-0 0 128 0 128 1:-1 2:-1 5:-1 6:-1 7:-1 8:0.5 9:-0.428571 10:-0.5 
-2.292865468693643 0 23.53243173931054 0 12.31330316509617 1:-1 2:-1 5:0.5 7:1 8:1 9:-0.428571 10:1 
-0 0 128 28.84690419831826 13.36869793943137 1:-1 2:-1 3:1 4:-1 5:-1 6:-1 7:0.333333 8:0.5 9:-1 10:-0.5 
-0 80.81346805141125 0 0 0 1:-1 2:-0.5 3:-1 4:-1 5:-1 6:-1 7:-1 8:1 9:-0.428571 10:-0.5 
-0 128 128 9.070826688061672 128 1:-1 2:-0.5 3:0.5 4:-1 5:-0.5 6:-1 7:-1 8:-0.5 9:-1 10:-0.5 
-0 107.3742339805453 128 0 128 1:-1 2:-0.5 3:0.5 4:0.5 5:-0.5 6:-1 7:-1 9:-0.714286 10:-0.5 
-12.78652880007225 0 0 0 100.4592331795322 1:-1 2:-0.5 3:1 4:0.5 5:-1 6:-1 7:0.333333 8:0.5 9:-0.142857 10:-0.5 
-0 0 0 0 45.05544867560611 1:-1 4:-0.5 5:-1 6:-1 7:-1 8:1 9:-0.428571 
-0.2319997372481755 48.08175759169934 128 17.26953067381288 72.67135741893119 2:-1 4:-0.5 5:1 6:-0.5 7:0.333333 8:0.5 9:-0.714286 10:-0.5 
-0 44.48232510517112 128 128 128 2:-1 3:0.5 4:-0.5 5:-1 6:-1 7:0.333333 8:-0.5 9:-1 10:-0.5 
-11.07708363544532 89.17193575372576 128 60.95784821533033 25.27149399669948 5:-1 6:-0.5 7:0.333333 8:0.5 9:-0.428571 10:-0.5 
-0 -128 128 79.10095103642188 128 1:-1 2:-1 3:0.5 4:-1 5:-0.5 6:-1 7:-1 9:-0.714286 10:-0.5 
-0.5500133938679034 -20.34655523576644 75.36620636707472 0 95.03482633669786 1:-1 2:-0.5 3:-1 4:1 5:-0.5 6:-1 7:0.333333 8:0.5 9:-0.714286 10:-0.5 
-0 -128 128 5.0755430918307 128 1:-1 2:-0.5 5:-1 6:-1 7:-0.333333 8:-0.5 9:-1 10:-0.5 
-3.624103533299283 -71.87635302985603 42.44345439766338 0 5.218832674984692 1:-1 2:-0.5 3:0.5 4:-1 5:-0.5 6:-1 7:-1 8:-0.5 9:-0.428571 10:-0.5 
-0 -20.03250868167185 12.86447549786601 0 0 1:-1 2:1 3:-0.5 4:-1 5:-1 6:-1 7:-1 8:1 9:-1 10:-0.5 
-6.058382371247285 -0 0 0 0 2:-1 3:-1 5:0.5 6:-0.5 7:-0.333333 8:-0.5 9:0.142857 10:-0.5 
-0 -0 128 34.06022179787442 107.4614364208978 2:-1 5:0.5 6:-1 7:-0.333333 8:-1 9:-1 10:-0.5 
-0 -53.80624241525459 128 0 12.88482872080834 2:-1 4:0.5 5:1 6:-1 7:-0.333333 8:0.5 9:-1 10:-0.5 
-4.965743368886834 -0 124.0058448173264 0 0 2:-0.5 3:-1 4:0.5 5:-1 6:-0.5 7:-0.333333 9:-0.428571 10:-0.5 
-4.690235507427182 -101.8910558699036 0 0 0 3:-1 5:-1 6:-0.5 7:-0.333333 8:1 9:-0.142857 10:-0.5 
-5.852688084166325 -0 32.84812662731618 0 112.2931079583898 4:0.5 5:0.5 6:-1 7:-0.333333 8:0.5 9:-0.428571 10:-0.5 
-0 -22.43004163001797 48.37394752875898 75.7187080286526 104.0747127340671 1:1 3:0.5 5:-0.5 6:-1 7:-0.333333 9:-0.714286 10:-0.5 
-1.1404951812806 -37.44367730695872 -13.51768707985907 0 0 1:-1 2:-1 3:-1 5:-0.5 6:-0.5 7:0.333333 8:0.5 9:-0.428571 
-0 -128 -39.70373629797079 0 49.55291948696947 1:-1 2:-1 3:-0.5 5:-1 6:-1 7:-1 9:-0.714286 10:-0.5 
-0 -0 -0 0 57.20336921568445 1:-1 2:-1 3:-0.5 5:-0.5 6:-1 7:-1 8:-0.5 9:-1 10:-0.5 
-0 -3.489323031439809 -0 0 11.72657964387283 1:-1 2:-1 3:-0.5 5:0.5 6:-1 7:-1 8:0.5 9:-0.714286 10:-0.5 
-0 -0 -0 0 42.28105261350983 1:-1 2:-1 5:0.5 6:-1 7:-1 8:0.5 9:-1 10:-1 
-0 -0 -128 0 128 1:-1 2:-1 4:0.5 5:-0.5 6:-1 7:-0.333333 9:-0.714286 10:-0.5 
-5.478630521204077 -39.94320886101264 -0 0 128 1:-1 2:-1 3:0.5 5:-0.5 6:-0.5 7:-1 9:-0.714286 10:-0.5 
-0 -0 -0 0 45.55413321783953 1:-1 2:-1 3:0.5 5:0.5 6:-0.5 7:-1 9:-0.714286 10:-1 
-0 -23.01041778296151 -0 0 5.396554577166063 1:-1 2:-1 3:1 4:-0.5 5:-1 6:-1 7:-0.333333 8:0.5 9:-1 10:-1 
-0 -110.9245367084892 -0 0 128 1:-1 2:-1 3:1 4:-0.5 5:-1 6:-1 7:-0.333333 8:0.5 9:-1 10:-1 
-0 -128 -13.99995803510319 14.42176169345799 114.3206107286966 1:-1 2:-0.5 3:0.5 4:-1 5:-0.5 6:-1 7:-1 8:0.5 9:-1 10:-0.5 
-1.799763851595071 -63.58912642320723 -12.95631907578134 20.48390528022107 114.3461440400319 1:-1 2:-0.5 3:0.5 4:-0.5 5:-1 6:-1 7:1 9:-0.714286 10:-0.5 
-0 -128 -128 4.085083232178679 128 1:-1 2:-0.5 3:0.5 4:-0.5 5:-0.5 6:-1 7:-1 9:-0.714286 10:-0.5 
-0 -23.00575959228282 -17.93662751983806 0 16.19789723528053 2:-1 3:-0.5 5:1 6:-1 7:1 8:1 9:-0.428571 10:-0.5 
-0 -0.639243957488547 -57.2814289418642 24.42810955670643 0 2:-1 4:-1 5:1 6:-1 7:-1 8:-1 9:-1 10:-0.5 
-0 -0 -0 0 43.59977255643673 2:-1 5:-0.5 6:-1 7:0.333333 8:0.5 9:-0.714286 10:-0.5 
-9.548403005491362 -0 -30.66891004381233 0 0 2:-1 5:-0.5 6:-0.5 7:0.333333 9:-0.428571 10:-0.5 
-0 -44.40873203368877 -0 81.0270152512133 61.39940473477201 2:-1 4:0.5 5:-0.5 6:-0.5 7:0.333333 9:-0.714286 10:1 
-0 -128 -0 128 0 2:-1 3:0.5 4:-1 5:-1 6:-1 7:0.333333 9:-1 10:-0.5 
-0 -0 -0 73.98981590042651 0 2:-1 3:0.5 5:-0.5 6:-0.5 7:0.333333 8:-0.5 9:-1 10:-0.5 
-0 -0 -0 0 23.30293712362564 2:-1 3:0.5 4:1 5:0.5 6:-0.5 7:1 9:-0.714286 10:-0.5 
-0 -9.912208876468002 -20.22748928830319 56.88989777956465 128 2:-1 3:1 4:0.5 5:0.5 6:-1 7:-1 8:-1 9:-1 10:-0.5 
-0 -4.166196679707233 -128 0 0 2:-0.5 3:-1 5:-1 6:-1 7:-1 8:-0.5 9:-1 10:-0.5 
-0.3927958052247144 -0 -46.96304938217877 0 0 2:-0.5 3:-1 5:-1 6:-0.5 7:1 8:0.5 9:-0.714286 10:-0.5 
-0 -63.18822806370886 -0 26.93717642706768 0 2:-0.5 3:-0.5 4:-0.5 5:-1 6:-0.5 7:1 8:0.5 9:-0.714286 10:-0.5 
-0 -0 -76.45851228643932 0 100.9673882667614 2:-0.5 5:0.5 6:-1 7:-0.333333 9:-1 10:-0.5 
-1.518418580539845 -109.3840116444594 -0 0 0 2:-0.5 5:0.5 6:-0.5 7:0.333333 8:0.5 9:-0.428571 10:-0.5 
-0 -5.226925742143871 -76.99431139441501 0 128 2:-0.5 4:1 5:0.5 6:-0.5 7:-0.333333 8:0.5 9:-1 10:-0.5 
-0 -0 -24.93653862546533 20.80313627081758 128 2:-0.5 3:0.5 5:0.5 6:-1 7:0.333333 9:-0.714286 10:-0.5 
-0 -0 -32.25748726497504 0 35.26086245146846 2:-0.5 3:0.5 4:0.5 5:0.5 6:-1 7:1 8:-1 9:-1 10:-0.5 
-2.426273869716014 -15.47973847356318 -13.04041096152543 -90.42722345249239 53.56000797893914 2:-1 3:-0.5 4:0.5 5:-0.5 6:-1 7:1 8:-0.5 9:-0.714286 10:1 
-3.474932272787964 -99.97752732972765 -0 -128 0 2:-1 3:0.5 4:-0.5 5:-1 6:-0.5 7:1 9:-1 10:-0.5 
-2.030286378563607 -15.97767432888481 -73.06008881809896 -123.5381938050064 67.53288287903384 2:-1 3:1 4:-0.5 5:0.5 6:-1 7:-1 8:-0.5 9:-0.714286 10:-0.5 
-3.344498526082159 -112.7101696433475 -107.8549241751552 -109.1004841341551 128 2:-0.5 3:0.5 4:-0.5 5:-1 6:-1 7:-0.333333 9:-1 10:-0.5 
-4.120363665253155 -32.35749567273024 -42.95370833014354 -78.1216087964758 -17.74177017404408 1:-1 2:-1 3:-0.5 5:-1 6:-1 7:1 8:-0.5 9:-0.714286 10:-0.5 
-0 -0 -0 -100.4609501346483 -0 1:-1 2:-1 5:0.5 6:-1 7:0.333333 9:-1 10:-0.5 
-0 -60.00670506016518 -69.90293577693785 -128 -0 1:-1 2:-1 5:0.5 6:-1 7:0.333333 8:0.5 9:-0.714286 10:-0.5 
-0 -21.71343013350703 -111.3750493248634 -128 -0 1:-1 2:-1 3:0.5 4:-0.5 5:0.5 6:-1 7:-1 8:-1 9:-1 10:-0.5 
-0 -128 -56.20397064041151 -73.7817037747282 -0 1:-1 2:-1 3:0.5 5:-1 6:-1 7:-1 8:0.5 9:-0.428571 10:-0.5 
-0 -128 -0 -128 -12.92874753124702 1:-1 2:-1 3:1 4:-0.5 5:-1 6:-1 7:-1 8:0.5 9:-0.714286 10:-0.5 
-0 -0 -0 -0 -4.357838997810463 1:-1 2:-1 3:1 4:-0.5 5:0.5 6:-1 7:-1 8:-1 9:-1 10:-0.5 
-1.027088231044333 -17.06829104667586 -0 -0 -0 1:-1 2:-1 3:1 4:0.5 5:-1 6:-0.5 7:0.333333 8:0.5 9:-0.714286 10:1 
-0 -114.1155176718015 -0 -84.40494232507498 -0 1:-1 2:-0.5 5:-1 6:-1 7:0.333333 8:-0.5 9:-0.714286 10:-0.5 
-0 -50.80351275169106 -0 -122.9335801582575 -0 1:-1 2:-0.5 3:0.5 5:-0.5 6:-1 7:-1 9:-0.714286 10:-0.5 
-0 -0 -0 -128 -0 1:-1 2:-0.5 3:1 4:-0.5 5:-0.5 6:-1 7:-1 8:0.5 9:-1 10:-0.5 
-6.072267407024413 -22.73008781778046 -0 -4.720102470230609 -0 1:-1 3:0.5 4:-0.5 5:0.5 6:-1 7:-0.333333 9:-0.428571 10:-0.5 
-0 -6.649404280176216 -0 -0 -0 1:-1 2:1 3:1 5:-1 6:-1 7:-1 8:1 9:-1 
-0 -0 -107.6428292898975 -128 -11.34223167299017 2:-1 4:0.5 5:-1 6:-1 7:-0.333333 9:-1 10:-0.5 
-0 -48.72894394979598 -0 -15.21334292031975 -41.2957099040171 2:-1 3:0.5 4:0.5 5:-1 6:-1 7:-0.333333 8:0.5 9:-1 10:-0.5 
-0 -0 -0 -128 -37.17255638799193 2:-1 3:0.5 4:0.5 5:0.5 6:-1 7:-0.333333 8:-0.5 9:-1 10:-0.5 
-2.751884220481958 -25.67968626504372 -3.582821137829529 -108.7028375206437 -0 2:-1 3:0.5 4:1 5:1 6:0.5 7:-0.333333 8:1 9:-0.714286 10:-0.5 
-0 -0 -0 -0 -4.22275827605771 2:-1 3:1 5:0.5 6:-1 7:-0.333333 8:-0.5 9:-1 10:1 
-0 -0 -82.7980643570222 -128 -0 2:-0.5 3:0.5 4:0.5 5:0.5 6:-1 7:-0.333333 9:-1 10:-0.5 
-0 -18.83872626234209 -8.193281528827376 -1.30346467614377 -52.6981201249349 2:-0.5 3:1 4:-1 5:-0.5 6:-1 7:-0.333333 8:-1 9:-1 10:1 
-0 -128 -128 -128 -67.33315778887962 4:-0.5 5:-0.5 6:-1 7:-0.333333 9:-0.714286 10:-0.5 
-15.48719752072049 -0 -82.31508445991263 -3.467093115592954 -0 2:1 3:-0.5 4:1 5:-0.5 6:-1 7:-0.333333 9:-0.428571 10:-0.5 
