svm_type c_svc
kernel_type rbf
gamma 0.0078125
nr_class 6
total_sv 19
rho 0.0368674 0.0840963 0.315594 0 0.37 1.30948 -0.153523 -0.0166724 -0.0470126 0.0502846 -0.0211057 1.7424 -0.208827 0.836796 0.24516
label 0 1 2 3 4 5
nr_sv 1 3 3 6 1 5
SV
8.436892538429307 9.337875314242314 23.05250481681351 6.189555034385769 14.2509955528078 1:1 2:1 4:0.5 5:-0.333333 6:1 7:1 9:1 10:-1 
-6.577634878074479 6.600431134276357 15.44923458796948 0 26.48189967184713 1:-1 2:-1 3:-1 4:0.5 5:-1 6:-1 7:0.333333 8:1 9:-0.2 10:-1 
-0 104.9225797123976 9.881004392887697 5.814244459430384 16.84211053822185 1:-1 2:-1 4:-1 5:-1 6:-1 7:-1 8:0.5 9:-0.6 10:-1 
-1.859257660354828 54.05649927335419 0 2.709397296086042 10.35179694621458 1:-1 2:-1 5:-1 6:-1 7:-1 8:0.5 9:-0.2 10:-1 
-0 -0 22.79421880909756 5.469550737010188 128 1:-1 2:-1 4:-0.5 5:-0.333333 6:-1 7:-0.333333 9:-0.6 10:-1 
-1.565958439784801 -128 0 6.022452780288941 0.7156742698929006 1:-1 2:-1 3:0.5 4:-1 5:-0.333333 6:-1 7:-1 9:-0.6 10:-1 
-7.771916874457514 -37.57951012002812 7.66145673883374 0 41.38581781247635 1:-1 2:-0.5 3:-1 4:1 5:-0.333333 6:-1 7:0.333333 8:0.5 9:-0.6 10:-1 
-0 -22.83459230778707 -17.55088844042233 0 32.52498755864185 1:1 2:-1 5:-0.333333 6:-1 7:0.333333 8:0.5 9:-0.6 10:-1 
-0 -0 -0 0 6.140172075584627 1:1 2:-1 5:1 6:-1 7:1 8:0.5 9:-0.6 10:-1 
-0 -0 -4.550213893901981 4.630283069956887 0 1:1 2:-1 3:0.5 4:-1 5:-1 6:-1 7:0.333333 9:-1 10:-1 
-8.514661244519964 -0 -0 0.8546408946885142 34.32480299013283 1:1 2:-1 3:0.5 4:1 5:1 6:1 7:1 9:-0.6 10:-1 
-14.53784357229355 -2.495646673070108 -0.8846704998087722 0 0 1:1 2:-0.5 3:-0.5 4:-0.5 5:-1 6:1 7:1 8:0.5 9:-0.6 10:-1 
-0 -0 -7.469902713798204 15.71411615979048 128 1:1 2:-0.5 5:1 6:-1 7:-0.333333 9:-1 10:-1 
-6.189555034385769 -8.523641755516428 -11.49200351729913 -21.19904012443588 25.20138644713461 1:1 2:-1 3:1 4:-0.5 5:1 6:-1 7:-0.333333 8:-1 9:-1 10:1 
-0 -0 -34.44336216553225 -0 -5.512042783870452 1:-1 2:-1 3:0.5 4:-0.5 5:1 6:-1 7:-1 8:-1 9:-1 10:-1 
-6.08173360305445 -46.60942673801191 -113.1894405561792 -16.69919576730805 -0 1:-1 2:-0.5 5:-1 6:-1 7:0.333333 8:-0.5 9:-0.6 10:-1 
-8.169261949753349 -0 -0 -17.48482034902177 -1.055189266733833 1:1 2:-1 3:-1 4:-0.5 5:1 6:1 7:-0.333333 8:-1 9:-0.2 10:-1 
-0 -7.066380418271653 -22.46868936065782 -61.42032743906466 -0 1:1 2:-1 3:-1 4:0.5 5:1 6:-1 7:0.333333 9:-1 10:-1 
-0 -0 -0 -105.3856190689648 -18.63415439653032 1:1 2:-1 3:0.5 4:0.5 5:1 6:-1 7:-0.333333 8:-0.5 9:-1 10:-1 
