svm_type c_svc
kernel_type rbf
gamma 0.5
nr_class 3
total_sv 36
rho 0.493922 0.243697 -0.152644
label 1 2 3
nr_sv 12 14 10
SV
1.109513063714492 0.6762455457967347 1:0.205387 2:-0.563941 3:-0.241379 4:-1 5:-0.512195 6:0.115108 7:0.396341 8:-0.608696 9:-0.398601 10:-0.584559 11:0.21519 12:0.743802 13:0.232053 
0.7858437894590149 0 1:0.393939 2:-0.551363 3:0.224138 4:0.177215 5:-0.512195 6:0.151079 7:0.530488 8:-0.608696 9:0.00699301 10:-0.452206 11:0.189873 12:0.801653 13:0.015025 
0.1776997441694203 0.09676639523886464 1:0.414141 2:-0.555556 3:0.637931 4:-0.0126582 5:-0.268293 6:-0.100719 7:0.256098 8:-0.478261 9:-0.216783 10:-0.617647 11:0.341772 12:0.305785 13:0.307179 
0.07330889910929138 0.1079005342372268 1:0.447811 2:-0.584906 3:0.310345 4:0.177215 5:-0.121951 6:0.338129 7:0.408537 8:-0.869565 9:0.41958 10:-0.240809 11:0.0379747 12:0.438017 13:0.348915 
0.6574773566491557 0.4652677051932208 1:0.56229 2:-0.681342 3:0.724138 4:0.43038 5:-0.487805 6:0.366906 7:0.695122 8:-0.478261 9:0.370629 10:-0.341912 11:0.56962 12:0.173554 13:0.624374 
0.9515868759758358 0.7899368069203406 1:0.582492 2:-0.668763 3:0.724138 4:0.0506329 5:0.268293 6:0.330935 7:0.384146 8:0.434783 9:-0.34965 10:-0.397059 11:0.721519 12:0.413223 13:0.540902 
0.2772986657803744 0.1742703169028112 1:0.622896 2:-0.57652 3:0.241379 4:-0.64557 5:-0.243902 6:1 7:0.993902 8:-0.347826 9:0.013986 10:-0.09375 11:0.113924 12:0.628099 13:0.465776 
0.08264882508588979 0.2711101461014849 1:0.6633 2:-0.51782 3:0.534483 4:-0.518987 5:-0.487805 6:0.546763 7:0.884146 8:-1 9:-0.104895 10:-0.391544 11:-0.21519 12:0.876033 13:0.307179 
0.1215513799602264 0 1:0.676768 2:-0.60587 3:-0.275862 4:-0.392405 5:-0.487805 6:0.438849 7:0.780488 8:-0.826087 9:0.202797 10:-0.268382 11:-0.139241 12:0.68595 13:0.123539 
0.3530758824606017 0.2557574593566503 1:0.784512 2:-0.626834 3:-2.22045e-016 4:-0.392405 5:0.121951 6:0.366906 7:0.646341 8:-0.695652 9:0.174825 10:-0.351103 11:0.316456 12:1 13:-0.218698 
0.1673142388327436 0.2475015509189074 1:0.811448 2:-0.404612 3:0.0344828 4:-0.139241 5:-0.390244 6:0.330935 7:0.737805 8:-0.782609 9:0.370629 10:-0.332721 11:0.721519 12:0.553719 13:1 
0.2482109988360321 0.3138685478670592 1:1 2:0.194969 3:-2.22045e-016 4:-0.392405 5:-0.463415 6:0.546763 7:0.646341 8:-0.565217 9:0.237762 10:-0.488971 11:0.189873 12:0.77686 13:0.257095 
-0 0.08878816620009632 1:-1 2:-1 3:0.37931 4:0.240506 5:-0.804878 6:-0.00719424 7:-0.0609756 8:0.0869565 9:-0.286713 10:-0.823529 11:0.341772 12:-0.157025 13:-0.796327 
-0.1476897379727315 0.7076314551987697 1:-0.575758 2:0.492662 3:0.172414 4:0.367089 5:-1 6:-0.280576 7:-0.219512 8:0.0869565 9:-0.34965 10:-0.911765 11:-0.443038 12:0.0578512 13:-0.552588 
-0.3519717035433838 0.1271772957724534 1:-0.548822 2:-0.438155 3:-1 4:-0.202532 5:-0.585366 6:-0.18705 7:0.0365854 8:-0.608696 9:-0.314685 10:-0.783088 11:0.772152 12:0.380165 13:-0.335559 
-0.2049669954509634 1.501490922608862 1:-0.407407 2:-0.63522 3:-0.12069 4:0.164557 5:-0.439024 6:-1 7:-0.664634 8:-0.130435 9:-0.272727 10:-0.829044 11:-0.149367 12:-0.561983 13:-0.0684474 
-0.4561291811554081 0.1998399339622623 1:-0.373737 2:-0.283019 3:0.310345 4:0.240506 5:-0.560976 6:0.0503597 7:-1.11022e-016 8:-0.26087 9:-0.377622 10:-0.875 11:-0.417722 12:0.727273 13:-0.789649 
-0.9862934385904503 0.5195013135243652 1:-0.353535 2:-0.861635 3:-0.310345 4:-0.0759494 5:-0.804878 6:0.741007 7:1 8:-0.695652 9:0.0699301 10:-0.5625 11:0.189873 12:0.22314 13:-0.419032 
-0.6820073467000427 0.7403146655092375 1:-0.286195 2:-0.672956 3:-0.137931 4:-0.0126582 5:1 6:0.00719424 7:0.097561 8:-0.347826 9:1 10:-0.911765 11:0.493671 12:0.107438 13:0.0434057 
-0 1.090187668447912 1:-0.171717 2:-0.740042 3:-0.448276 4:-0.291139 5:-0.512195 6:-0.338129 7:-0.426829 8:0.565217 9:-0.86014 10:-0.332721 11:0.0379747 12:-0.752066 13:-0.769616 
-0.2919202203760603 0 1:-0.151515 2:-0.899371 3:-0.0689655 4:-0.139241 5:-0.536585 6:-0.208633 7:-0.103659 8:-0.434783 9:-0.272727 10:-0.908088 11:0.670886 12:0.545455 13:-0.769616 
-0.08347279198599435 0.8285486896020036 1:-0.138047 2:-0.668763 3:-0.0344828 4:0.202532 5:-1 6:-0.798561 7:-0.396341 8:0.782609 9:-0.160839 10:-0.829044 11:-0.0126582 12:-0.363636 13:-0.694491 
-0.2221857945318028 0.8830859562406943 1:-0.0841751 2:0.127883 3:-0.517241 4:-0.392405 5:-1 6:-0.618705 7:-0.52439 8:0.130435 9:-0.713287 10:-0.764706 11:-0.670886 12:-0.31405 13:-0.899833 
-0.195630553866803 0.2488456234189522 1:0.0909091 2:-0.932914 3:-0.982759 4:-0.392405 5:-0.853659 6:-0.388489 7:-0.0487805 8:-0.695652 9:-0.272727 10:-0.544118 11:0.56962 12:-0.0165289 13:-0.866444 
-0.5327412597419664 0.8508170121507429 1:0.299663 2:-0.916143 3:0.137931 4:-0.265823 5:-0.268293 6:0.028777 7:-0.493902 8:0.652174 9:-1 10:-0.806985 11:0.139241 12:-0.471074 13:-0.268781 
-0.8505206961174717 0.6880027196308165 1:0.649832 2:-0.677149 3:0.672414 4:0.746835 5:-0.853659 6:0.330935 7:0.457317 8:-0.826087 9:0.013986 10:-0.768382 11:1 12:0.545455 13:-0.836394 
-0.2312778623381596 -0.08356841468587363 1:-0.299663 2:-0.0398323 3:0.62069 4:1 5:-0.585366 6:-0.42446 7:-0.932927 8:1 9:-0.496503 10:-0.0110294 11:-0.746835 12:-0.636364 13:-0.0517529 
-0.3829959551458266 -2 1:-0.259259 2:-0.790356 3:-0.0517241 4:-0.202532 5:-0.878049 6:-0.352518 7:-0.932927 8:0.869565 9:-0.41958 10:-0.387868 11:-0.544304 12:-0.818182 13:-0.435726 
-0.4081512731128574 -0.6707639343791904 1:-0.245791 2:1 3:0.62069 4:0.746835 5:-0.609756 6:-0.503597 7:-0.920732 8:1 9:-0.524476 10:-0.470588 11:-0.367089 12:-0.669421 13:-0.661102 
-0.1844364715724877 -0.4573800412477833 1:-0.212121 2:-0.769392 3:-0.310345 4:0.113924 5:-0.439024 6:-0.726619 7:-0.932927 8:0.565217 9:-0.314685 10:0.00735294 11:-0.974684 12:-0.785124 13:-0.452421 
-0 -0.007522182016719235 1:-0.030303 2:0.0607966 3:0.517241 4:0.367089 5:-0.365854 6:-0.604317 7:-0.920732 8:0.869565 9:-0.622378 10:-0.363971 11:-0.240506 12:-0.322314 13:-0.569282 
-0.6394287458475462 -1.865553261868694 1:-0.023569 2:-0.744235 3:0.0689655 4:-0.139241 5:0.0243902 6:-0.705036 7:-0.52439 8:-0.826087 9:-0.636364 10:-0.636029 11:-0.518987 12:-1 13:-0.469115 
-0.1111737472439192 -1.008586572649858 1:0.023569 2:-0.132075 3:0.724138 4:0.240506 5:-0.609756 6:-0.683453 7:-0.981707 8:0.565217 9:-0.769231 10:-0.544118 11:-0.493671 12:-0.157025 13:-0.519199 
-0.5190330168953736 -0.7083223669826615 1:0.340067 2:0.618449 3:1 4:0.746835 5:-0.219512 6:-0.366906 7:-0.70122 8:-0.565217 9:-0.517483 10:0.172794 11:-0.746835 12:-0.479339 13:-0.469115 
-0.2316434228574391 -0.6645296992727979 1:0.56229 2:0.51782 3:-0.0344828 4:0.43038 5:-0.804878 6:-0.870504 7:-1 8:0.521739 9:-0.48951 10:-0.172794 11:-0.468354 12:-0.619835 13:-0.652755 
-0.690484513519691 -1.008004949163591 1:0.973064 2:-0.60587 3:0.724138 4:0.746835 5:-0.560976 6:0.223022 7:-0.487805 8:0.565217 9:0.594406 10:1 11:-1 12:-0.446281 13:-0.419032 
