svm_type c_svc
kernel_type rbf
gamma 0.03125
nr_class 3
total_sv 18
rho 0.154114 0.151579 -0.171104
label 1 2 3
nr_sv 5 6 7
SV
8 3.187883017405561 1:0.306122 2:-0.689278 3:0.71223 4:-0.00671141 5:0.025641 6:0.125 7:0.266234 8:-0.478261 9:0.0625 10:-0.348442 11:0.486486 12:-0.116105 13:0.5629 
1.460999321917946 0 1:0.306122 2:-0.636761 3:0.0647482 4:-0.14094 5:0.487179 6:0.583333 7:0.636364 8:-0.521739 9:0.677083 10:-0.124646 11:-0.162162 12:0.513109 13:0.0938166 
8 5.976013650566816 1:0.461224 2:0.330416 3:0.338129 4:-0.0738255 5:0.282051 6:0.283333 7:0.396104 8:-0.347826 9:0.291667 10:-0.31728 11:-0.324324 12:0.250936 13:-0.343284 
4.893239622554442 0 1:0.657143 2:-0.619256 3:0.510791 4:0.328859 5:0.128205 6:0.333333 7:0.623377 8:-0.608696 9:0.5 10:-0.107649 11:0.27027 12:0.602996 13:0.168443 
2.571922464844825 0 1:0.820408 2:-0.610503 3:0.438849 4:-0.114094 5:0.333333 6:0.1 7:0.435065 8:0.0869565 9:0.614583 10:-0.464589 11:0.783784 12:0.153558 13:0.317697 
-1.682733488252631 8 1:-0.314286 2:-0.706783 3:0.223022 4:0.315436 5:0.282051 6:-1 7:-0.649351 8:-0.130435 9:0.0833333 10:-0.688385 11:-0.0918919 12:-0.632959 13:0.0618337 
-7.243427921064581 2.031819146923396 1:-0.273469 2:-0.339168 3:0.582734 4:0.395973 5:0.025641 6:0.216667 7:0.0584416 8:-0.26087 9:-0.0729167 10:-0.759207 11:-0.378378 12:0.535581 13:-0.859275 
-8 0 1:-0.24898 2:-0.881838 3:0.726619 4:0.00671141 5:0.025641 6:0.1 7:0.409091 8:-0.130435 9:0.729167 10:-0.249292 11:0.675676 12:-0.273408 13:-0.347548 
-0 2.34461753558575 1:0.0122449 2:-0.741794 3:0.294964 4:0.355705 5:-0.897436 6:-0.766667 7:-0.363636 8:0.782609 9:0.25 10:-0.688385 11:0.0540541 12:-0.453184 13:-0.73774 
-8 0 1:0.0367347 2:-0.619256 3:0.208633 4:0.100671 5:-0.589744 6:-0.0833333 7:0.331169 8:-0.608696 9:0.40625 10:-0.447592 11:0.594595 12:0.355805 13:-0.270789 
-0 8 1:0.077551 2:0.0897155 3:-0.107914 4:-0.275168 5:-0.897436 6:-0.558333 7:-0.5 8:0.130435 9:-0.572917 10:-0.589235 11:-0.648649 12:-0.40824 13:-1 
-0 -8 1:-0.387755 2:-0.0853392 3:0.381295 4:0.127517 5:-0.0769231 6:-0.875 7:-0.993506 8:2.22045e-016 9:-0.677083 10:0.00566572 11:-0.756757 12:-0.625468 13:-0.705757 
-2.287355030365684 -0.2189303678524592 1:0.355102 2:-0.579869 3:1 4:1 5:0.948718 6:-0.0833333 7:-0.480519 8:-0.608696 9:0.1875 10:0.458924 11:-0.891892 12:-1 13:-0.886994 
-3.443073058623037 -6.990426226863041 1:0.395918 2:0.150985 3:0.136691 4:0.395973 5:0.230769 6:-0.666667 7:-0.954545 8:0.130435 9:-0.0833333 10:-0.419263 11:-0.918919 12:-0.737828 13:-0.0234542 
-0 -3.797190870416063 1:0.665306 2:0.159737 3:0.194245 4:0.194631 5:-0.487179 6:-0.566667 7:-1 8:0.782609 9:-0.520833 10:0.0623229 11:-0.351351 12:-0.632959 13:-0.556503 
-0 -1.369889217377583 1:0.689796 2:-0.02407 3:0.956835 4:0.731544 5:-0.025641 6:-0.625 7:-0.974026 8:0.434783 9:-0.864583 10:-0.320113 11:-0.135135 12:-0.453184 13:-0.684435 
-3.42791737808741 -0 1:0.828571 2:0.0153173 3:0.697842 4:0.261745 5:0.487179 6:-0.391667 7:-0.948052 8:0.434783 9:-0.604167 10:0.113314 11:0.0540541 12:-0.632959 13:-0.343284 
-0.005551200896245057 -0 1:0.95102 2:0.391685 3:0.467626 4:0.194631 5:-0.435897 6:-0.416667 7:-0.772727 8:0.347826 9:0.1875 10:1 11:-1 12:-0.76779 13:-0.769723 
