svm_type c_svc
kernel_type rbf
gamma 0.00012207
nr_class 3
total_sv 41
rho 0.834419 0.313785 -0.103845
label 1 2 3
nr_sv 11 20 10
SV
512 0 1:0.0631579 2:-0.57037 3:-0.473684 4:-0.625 5:-0.0491803 6:0.37037 7:0.457726 8:-0.521739 9:0.231441 10:-0.434234 11:-0.443478 12:0.559846 13:-0.134094 
512 512 1:0.0631579 2:-0.432099 3:1 4:0.375 5:0.508197 6:0.0962963 7:0.271137 8:0.304348 9:0.135371 10:-0.697297 11:-0.00869565 12:0.444015 13:-0.212553 
512 197.6337525324819 1:0.0736842 2:-0.703704 3:-0.473684 4:-0.8125 5:-0.344262 6:-0.0740741 7:0.247813 8:-0.521739 9:-0.344978 10:-0.675676 11:0.0782609 12:0.0501931 13:0.0584879 
362.6819381126716 0 1:0.121053 2:-0.279012 3:0.276316 4:-0.425 5:-0.245902 6:0.222222 7:0.597668 8:-0.434783 9:0.912664 10:-0.318919 11:-0.182609 12:0.420849 13:0.293866 
512 512 1:0.194737 2:-0.595062 3:-0.421053 4:-0.625 5:-0.47541 6:-0.0740741 7:-0.0145773 8:-0.565217 9:-0.362445 10:-0.630631 11:-0.2 12:0.111969 13:0.436519 
512 512 1:0.252632 2:0.451852 3:-0.447368 4:-0.4 5:-0.606557 6:-0.037037 7:0.271137 8:-0.565217 9:-0.248908 10:-0.571171 11:-0.391304 12:0.289575 13:0.0798859 
512 512 1:0.305263 2:-0.555556 3:0.25 4:-0.375 5:0.0491803 6:-0.111111 7:0.183673 8:-0.478261 9:-0.196507 10:-0.585586 11:-0.0608696 12:0.189189 13:0.165478 
512 0 1:0.331579 2:-0.6 3:-0.197368 4:-0.725 5:0.278689 6:0.481481 7:0.626822 8:-0.26087 9:0.502183 10:-0.237838 11:-0.321739 12:0.583012 13:-0.262482 
512 9.056857002642701 1:0.394737 2:-0.540741 3:-0.131579 4:-0.6 5:-0.147541 6:-0.0592593 7:0.276968 8:0.0869565 9:0.179039 10:-0.65045 11:0.165217 12:0.189189 13:0.0156919 
512 0 1:0.573684 2:-0.614815 3:-0.328947 4:-0.75 5:-0.409836 6:0.111111 7:0.0670554 8:-0.608696 9:0.187773 10:-0.495495 11:-0.165217 12:0.745174 13:0.0798859 
512 207.9986218059054 1:0.615789 2:-0.446914 3:-0.0789474 4:-0.4 5:-0.180328 6:0.185185 7:0.411079 8:-0.347826 9:0.537118 10:-0.225225 11:-0.113043 12:0.0965251 13:0.115549 
-512 0 1:-0.778947 2:-0.259259 3:-0.0526316 4:-0.25 5:-0.409836 6:0.296296 7:0.335277 8:-0.347826 9:0.0567686 10:-0.756757 11:-0.582609 12:0.590734 13:-0.504993 
-0 512 1:-0.668421 2:-0.516049 3:-0.710526 4:-0.75 5:-0.377049 6:-0.659259 7:-0.376093 8:-0.26087 9:-0.537118 10:-0.657658 11:0.165217 12:-0.374517 13:-0.78602 
-512 0 1:-0.557895 2:0.683951 3:-0.0921053 4:-0.125 5:-0.868852 6:0.266667 7:0.475219 8:-0.826087 9:1 10:-0.837838 11:-0.669565 12:0.783784 13:-0.854494 
-0 512 1:-0.489474 2:-0.698765 3:-0.0526316 5:-0.737705 6:-0.777778 7:-0.562682 8:0.434783 9:-0.117904 10:-0.693694 11:-0.147826 12:0.019305 13:-0.754636 
-512 0 1:-0.447368 2:-0.417284 3:-1 4:-0.5625 5:-0.377049 6:-0.2 7:-0.0262391 8:-0.608696 9:-0.318777 10:-0.747748 11:0.234783 12:0.258687 13:-0.383738 
-0 134.4825898377484 1:-0.4 2:-0.728395 3:0.0921053 4:-0.375 5:-0.147541 6:-0.451852 7:-0.271137 8:0.217391 9:-0.641921 10:-0.810811 11:0.547826 12:-0.305019 13:-0.890157 
-217.4304700850312 0 1:-0.357895 2:-0.590123 3:-0.447368 4:-0.375 5:-0.934426 6:-0.62963 7:-0.107872 8:-0.130435 9:-0.117904 10:-0.72973 11:-0.234783 12:0.420849 13:-0.669044 
-59.40729113826745 0 1:-0.336842 2:-0.0469136 3:-0.315789 4:-0.5 5:-0.672131 6:-0.037037 7:0.0204082 8:-0.652174 9:0.196507 10:-0.954955 11:0.026087 12:0.521236 13:-0.982882 
-512 0 1:-0.294737 2:-0.916049 3:-0.473684 4:-0.4375 5:-0.672131 6:0.755556 7:0.895044 8:-0.695652 9:0.161572 10:-0.531532 11:-0.165217 12:0.111969 13:-0.455064 
-512 0 1:-0.294737 2:-0.846914 3:0.131579 4:-0.4875 5:-0.344262 6:-0.0592593 7:0.253644 8:-0.130435 9:0.275109 10:-0.513514 11:0.0956522 12:-0.250965 13:-0.429387 
-245.3285455702537 0 1:-0.263158 2:-0.688889 3:-0.223684 4:-0.0625 5:-0.737705 6:0.177778 7:0.54519 8:-0.0434783 9:0.00436681 10:-0.632432 11:-0.773913 12:0.166023 13:-0.894437 
-0 202.2270289730162 1:-0.215789 2:-0.244444 3:-0.381579 4:-0.125 5:-0.672131 6:0.037037 7:0.03207 8:-0.608696 9:-0.475983 10:-0.981982 11:-0.408696 12:0.119691 13:-0.932953 
-512 512 1:-0.152632 2:-0.77284 3:-0.578947 4:-0.65 5:-0.278689 6:-0.355556 7:-0.469388 8:0.565217 9:-1 10:-0.306306 11:-0.269565 12:-0.799228 13:-0.754636 
-0 512 1:-0.126316 2:-0.688889 3:-0.263158 4:-0.1625 5:-0.934426 6:-0.82963 7:-0.440233 8:0.782609 9:-0.126638 10:-0.792793 11:-0.304348 12:-0.436293 13:-0.690442 
-0 512 1:-0.110526 2:-0.580247 3:-0.236842 4:0.0625 5:-0.803279 6:-0.82963 7:-0.265306 8:0.347826 9:-0.117904 10:-0.747748 11:-0.443478 12:-0.158301 13:-0.700428 
-0 512 1:-0.0842105 2:0.249383 3:-0.631579 4:-0.75 5:-0.934426 6:-0.644444 7:-0.562682 8:0.130435 9:-0.816594 10:-0.72973 11:-0.756522 12:-0.389961 13:-0.865906 
-512 344.2614006141062 1:0.0315789 2:-0.619753 3:0.184211 4:1 5:1 6:0.592593 7:0.393586 8:-0.826087 9:0.170306 10:-0.738739 11:0.304348 12:0.675676 13:0.0085592 
-432.7770850023316 0 1:0.0526316 2:-1 3:-0.986842 4:-0.75 5:-0.737705 6:-0.407407 7:-0.107872 8:-0.695652 9:-0.266376 10:-0.513514 11:0.0956522 12:-0.111969 13:-0.837375 
-431.7385463167878 512 1:0.294737 2:-0.624691 3:-0.289474 4:0.25 5:-0.704918 6:-0.459259 7:-0.218659 8:-0.565217 9:-0.641921 10:-0.668468 11:-0.269565 12:0.119691 13:-0.723252 
-512 0 1:0.489474 2:-0.698765 3:0.276316 4:0.375 5:-0.737705 6:0.333333 7:0.376093 8:-0.826087 9:0.0917031 10:-0.733333 11:0.391304 12:0.413127 13:-0.811698 
-0 -512 1:-0.184211 2:-0.807407 3:-0.473684 4:-0.25 5:-0.180328 6:-0.755556 7:-0.953353 8:0.565217 9:-0.318777 10:0.027027 11:-0.965217 12:-0.830116 13:-0.483595 
-0 -512 1:-0.0631579 2:-0.303704 3:-0.0789474 4:0.25 5:-0.344262 6:-1 7:-0.655977 8:-0.565217 9:-0.816594 10:-0.315315 11:-0.826087 12:-0.976834 13:-0.597718 
-355.6945892436857 -512 1:-0.0473684 2:0.017284 3:0.197368 4:0.25 5:-0.245902 6:-0.133333 7:-0.941691 8:0.565217 9:-0.834061 10:-0.455856 11:-0.426087 12:-0.366795 13:-0.554922 
-512 -512 1:-0.0263158 2:0.0320988 3:-0.0789474 4:-0.25 5:-0.147541 6:-0.888889 7:-0.580175 8:-0.695652 9:-0.816594 10:-0.369369 11:-0.686957 12:-0.930502 13:-0.640514 
-234.5932474644961 -232.2426650129194 1:0.0947368 2:-0.506173 3:0.381579 4:0.4375 5:0.245902 6:-0.222222 7:-0.54519 8:-0.608696 9:-0.179039 10:-0.0630631 11:-0.913043 12:-1 13:-0.7903 
-512 -512 1:0.226316 2:-0.180247 3:-0.144737 4:-0.25 5:-0.639344 6:-0.814815 7:-1 8:-0.130435 9:-0.982533 10:-0.333333 11:-0.756522 12:-0.119691 13:-0.28388 
-0 -448.7283544119514 1:0.289474 2:-0.619753 3:0.236842 4:0.0625 5:-0.639344 6:0.0740741 7:-0.650146 8:0.521739 9:0.458515 10:0.774775 11:-0.982609 12:-0.65251 13:-0.512126 
-336.4013946328482 -512 1:0.363158 2:1 3:-0.144737 4:-0.25 5:-0.540984 6:-0.37037 7:-0.825073 8:0.304348 9:-0.650655 10:-0.54955 11:-0.391304 12:-0.444015 13:-0.611983 
-0 -512 1:0.4 2:0.165432 3:0.105263 4:-0.25 5:-0.0491803 6:-0.496296 7:-0.965015 8:0.434783 9:-0.842795 10:-0.282883 11:-0.304348 12:-0.621622 13:-0.426534 
-512 -0 1:0.742105 2:-0.614815 3:0.315789 4:0.375 5:-0.344262 6:0.222222 7:-0.527697 8:0.565217 9:0.816594 10:1 11:-0.982609 12:-0.513514 13:-0.455064 
