svm_type c_svc
kernel_type rbf
gamma 0.5
nr_class 3
total_sv 37
rho 0.372365 0.0482328 -0.261716
label 1 2 3
nr_sv 11 17 9
SV
1.39156208692943 0.9367753791404264 1:0.134948 2:-0.341709 3:0.986842 4:0.542484 5:0.586207 6:0.237624 7:-0.0412148 8:0.22449 9:-0.194245 10:-0.686275 11:0.382716 12:0.595041 13:-0.107518 
1.587902779457722 0.4895199455144546 1:0.148789 2:-0.61809 3:-0.486842 4:-0.699346 5:-0.310345 6:0.00990099 7:-0.0585683 8:-0.55102 9:-0.589928 10:-0.661507 11:0.506173 12:0.173554 13:0.199677 
0.2269522981010331 0.05782407853680601 1:0.266436 2:-0.0703518 3:0.526316 4:0.0196078 5:0.37931 6:0.405941 7:-0.0368764 8:-0.102041 9:-0.266187 10:-0.53354 11:0.160494 12:0.371901 13:-0.261116 
1.031283381634039 0.657217243853896 1:0.384083 2:0.557789 3:-0.460526 4:-0.267974 5:-0.586207 6:0.0594059 7:-0.0412148 8:-0.591837 9:-0.510791 10:-0.541796 11:-0.160494 12:0.429752 13:0.223929 
0.6108982180006355 0.4589281871764787 1:0.598616 2:-0.653266 3:0.0394737 4:-0.542484 5:0.0344828 6:1 7:0.388286 8:-0.918367 9:-0.107914 10:-0.0216718 11:-0.209877 12:0.322314 13:0.628133 
0.2218208723160127 0.1247228451977678 1:0.67474 2:-0.542714 3:0.171053 4:-0.477124 5:-0.448276 6:0.0594059 7:0.0932755 8:-0.795918 9:0.0719424 10:-0.26935 11:0.654321 12:0.735537 13:0.595796 
0.2797504813341627 0.2461476692006441 1:0.861592 2:-0.286432 3:-0.223684 4:-0.372549 5:-0.0689655 6:0.554455 7:0.236443 8:-0.795918 9:0.136691 10:-0.23839 11:0.679012 12:0.570248 13:0.991916 
0 0.1424802390979212 1:0.875433 2:-0.628141 3:-0.197368 4:-0.529412 5:-0.413793 6:-0.188119 7:-0.149675 8:-0.632653 9:-0.446043 10:-0.393189 11:0.481481 12:0.280992 13:0.620049 
0.01599680643945953 0.1632241235157016 1:0.937716 2:0.658291 3:-0.0394737 4:-0.254902 5:0.137931 6:0.455446 7:-0.0542299 8:-0.469388 9:-0.676259 10:-0.343653 11:-0.259259 12:0.702479 13:0.296686 
0.9736470433433208 0.7018054598661089 1:0.944637 2:0.633166 3:0.0526316 4:-1 5:0.724138 6:0.60396 7:0.114967 8:-0.877551 9:-0.0791367 10:-0.372549 11:-0.209877 12:0.867769 13:-0.220695 
0.04027152212606428 0.1453493551570859 1:1 2:-0.407035 3:0.328947 4:-0.111111 5:0.448276 6:0.405941 7:0.158351 8:-0.346939 9:-0.158273 10:-0.145511 11:0.234568 12:0.140496 13:0.620049 
-0.1318410915251533 0.2298914775692433 1:-1 2:-1 3:0.0394737 4:0.0196078 5:-0.655172 6:0.0891089 7:-0.331887 8:0.0204082 9:-0.539568 10:-0.789474 11:0.308642 12:-0.140496 13:-0.747777 
-0.5517361226351891 0.6077005570777303 1:-0.965398 2:0.507538 3:-0.855263 4:-0.176471 6:0.782178 7:-0.0845987 8:-0.714286 9:1 10:-0.826625 11:-0.555556 12:0.272727 13:-0.540825 
-0.7935627741390648 0.6947412489618462 1:-0.896194 2:-0.341709 3:1 4:1 5:0.413793 6:0.782178 7:1 8:0.22449 9:-0.230216 10:-0.186791 11:-0.111111 12:1 13:-0.697656 
-0.518522506047525 0.0649363124774282 1:-0.861592 2:-0.693467 3:0.302632 4:-0.111111 5:-0.448276 6:0.346535 7:0.0629067 8:-0.510204 9:0.215827 10:-0.878225 11:-0.037037 12:0.644628 13:-0.35004 
-0.4450993200309185 0.2964957802716245 1:-0.854671 2:-0.371859 3:-0.25 4:-0.372549 5:-0.310345 6:0.623762 7:-0.223427 8:-1 9:-0.604317 10:-0.754386 11:0.45679 12:0.396694 13:-0.891673 
-0.04372410791963888 0.2357950916785429 1:-0.702422 2:-0.924623 3:0.144737 4:-0.372549 5:-0.448276 6:-0.188119 7:-0.245119 8:-0.795918 9:0.115108 10:-0.795666 11:-0.45679 12:0.495868 13:-0.608731 
-0 0.08833737444960182 1:-0.591696 2:-0.909548 3:-0.618421 4:-0.24183 5:-0.724138 6:0.029703 7:-0.223427 8:-0.469388 9:-0.546763 10:-0.909185 11:1 12:0.528926 13:-1 
-0.360177019691281 0.9621100687663188 1:-0.564014 2:0.788945 3:-0.118421 4:0.150327 5:-0.931034 6:-0.287129 7:-0.444685 8:0.0204082 9:-0.604317 10:-0.888545 11:-0.45679 12:0.0743802 13:-0.511722 
-0.7554239300574314 0.6578756771216087 1:-0.363322 2:-0.874372 3:-0.684211 4:-0.79085 5:1 6:-0.485149 7:-0.401302 8:-0.265306 9:0.410072 10:-0.723426 11:0.209877 12:-0.140496 13:-0.236863 
-0 0.1396742734371995 1:-0.33564 2:-0.78392 3:-0.723684 4:-0.163399 5:-1 6:-0.277228 7:-0.336226 8:-0.591837 9:-0.827338 10:-0.459236 11:0.358025 12:0.826446 13:-0.624899 
-0.002929182225808594 0 1:-0.301038 2:-0.562814 3:-0.368421 4:0.215686 5:0.0344828 6:-0.386139 7:-0.29718 8:-0.306122 9:-0.417266 10:-1 11:0.209877 12:0.396694 13:-0.891673 
-0.1759058789319164 0.3459744811414719 1:-0.301038 2:-0.0904523 3:-0.263158 4:0.150327 5:-0.586207 6:-0.70297 7:-0.40564 8:1 9:-0.553957 10:-0.867905 11:-0.283951 12:0.677686 13:-0.940178 
-0.6083747461863763 0.5233980005731674 1:-0.301038 2:0.854271 3:0.342105 4:0.738562 5:-0.172414 6:-0.188119 7:-0.279826 8:0.0612245 9:-0.345324 10:-0.995872 11:-0.135802 12:0.528926 13:-0.859337 
-0.8059183000565249 0 1:-0.238754 2:-0.502513 3:-0.644737 4:-0.0457516 5:-0.758621 6:-0.188119 7:-0.370933 8:-0.387755 9:-0.510791 10:-0.818369 11:0.160494 12:0.900826 13:-0.362975 
-0.3401995783561163 0.8976819793306071 1:-0.114187 2:-0.603015 3:-0.276316 4:-0.0196078 5:-0.931034 6:-1 7:-0.570499 8:0.673469 9:-0.410072 10:-0.795666 11:-0.037037 12:-0.347107 13:-0.649151 
-0 0.1361461967811333 1:-0.0934256 2:-0.492462 3:-0.25 4:0.215686 5:-0.793103 6:-1 7:-0.440347 8:0.265306 9:-0.402878 10:-0.744066 11:-0.234568 12:-0.0495868 13:-0.660469 
-0.8466709318789355 0.3791313670218366 1:0.121107 2:-0.919598 3:-1 4:-0.633987 5:-0.724138 6:-0.435644 7:-0.32321 8:-0.714286 9:-0.52518 10:-0.475748 11:0.530864 13:-0.815683 
-0.4692720451110962 -0.5886413855218452 1:-0.418685 2:0.577889 3:-0.355263 4:-0.30719 5:0.172414 6:-1 7:-0.86551 8:-0.510204 9:-0.755396 10:0.26935 11:-0.802469 12:-0.396694 13:-0.0670978 
-0.524740385779908 -0.918667178033463 1:-0.418685 2:1 3:0.0921053 4:0.0196078 5:-0.62069 6:-1 7:-1 8:0.469388 9:-1 10:-0.630547 11:-0.555556 12:-1 13:-0.285368 
-0.4660002486010781 -0.8412240176368327 1:-0.190311 2:-0.723618 3:-0.486842 4:-0.111111 5:-0.137931 6:-0.90099 7:-0.952278 8:0.469388 9:-0.568345 10:0.143447 11:-0.975309 12:-0.768595 13:-0.414713 
-0.653959672683559 -1.189708490574311 1:-0.0103806 2:0.115578 3:0.184211 4:0.411765 5:-0.206897 6:-0.0693069 7:-0.943601 8:0.469388 9:-0.992806 10:-0.409701 11:-0.209877 12:-0.272727 13:-0.495554 
-0.400378768385374 -0.4643894128179977 1:0.377163 2:0.939698 3:0.513158 4:0.542484 5:0.172414 6:-0.405941 7:-0.787419 8:-0.591837 9:-0.776978 10:0.329205 11:-0.753086 12:-0.46281 13:-0.430881 
-0.7369394560944937 -0.9427871094355009 1:0.432526 2:-0.532663 3:0.223684 4:0.215686 5:-0.62069 6:0.207921 7:-0.726681 8:0.428571 9:0.0719424 10:1 11:-1 12:-0.578512 13:-0.447049 
-0.1436057699483157 -0.4619271002214394 1:0.439446 2:0.432161 3:-0.368421 4:-0.176471 5:-0.655172 6:-0.762376 7:-0.995662 8:0.673469 9:-0.942446 10:-0.24871 11:-0.407407 12:-0.545455 13:-0.511722 
-0.4845649160957687 -0.6362395651783706 1:0.446367 2:0.19598 3:0.197368 4:0.411765 5:0.551724 6:-0.980198 7:-0.522777 8:-0.795918 9:-0.676259 10:0.349845 11:-0.950617 12:-0.975207 13:-0.641067 
-0.2445332635576977 -0.2163056272396001 1:0.681661 2:0.698492 3:-0.118421 4:-0.176471 5:-0.62069 6:-0.584158 7:-0.843818 8:0.265306 9:-0.453237 10:0.434469 11:-1 12:-0.694215 13:-0.673403 
