svm_type c_svc
kernel_type rbf
gamma 0.0078125
nr_class 3
total_sv 16
rho 0.00474348 -0.086554 -0.350837
label 1 2 3
nr_sv 6 6 4
SV
8 0 1:-0.214545 2:-0.331765 3:0.926471 4:0.230769 5:0.24 6:0.797468 7:1 8:-0.534884 9:1 10:0.179641 11:0.315068 12:0.34127 13:0.72973 
2.245236133288656 1.067935440141967 1:0.0763636 2:-0.628235 3:0.617647 4:0.523077 5:0.84 6:1 7:0.656716 8:-1 9:0.698745 10:0.350299 11:0.178082 12:0.230159 13:0.589189 
0 1.233711826008502 1:0.127273 2:-0.590588 3:0.970588 4:0.0153846 5:0.68 6:0.860759 7:0.753731 8:-0.534884 9:-0.129707 10:0.664671 11:1 12:0.111111 13:1 
8 2.339842582641017 1:0.185455 2:-0.567059 3:0.470588 4:-0.0769231 5:0.24 6:0.556962 7:0.731343 8:-0.674419 9:0.0627615 10:-0.383234 11:0.534247 12:1 13:0.405405 
0 5.295219959042345 1:0.614545 2:-0.538824 3:1 4:0.446154 5:1 6:0.797468 7:0.925373 8:-0.395349 9:0.297071 10:0.335329 11:0.424658 12:-0.0714286 13:0.935135 
3.787288916445653 3.15430381939152 1:1 2:-0.670588 3:0.191176 4:-0.476923 5:0.08 6:0.797468 7:0.80597 8:-0.581395 9:0.305439 10:0.0359281 11:0.452055 12:0.0873016 13:0.427027 
-8 0 1:-1 2:-0.788235 3:0.676471 4:0.830769 5:-0.44 6:0.493671 7:0.291045 8:0.0697674 9:-0.481172 10:-0.652695 11:0.0410959 12:0.357143 13:-1 
-0 3.842780464725379 1:-0.789091 2:-1 3:-1 4:-1 5:-0.28 6:-0.240506 7:-0.992537 8:-0.627907 9:-1 10:-0.937126 11:0.369863 12:-0.730159 13:-0.708108 
-8 4.45632646839571 1:-0.789091 2:-0.872941 3:0.764706 4:0.153846 5:0.12 6:0.316456 7:0.559701 8:-0.209302 9:0.389121 10:-0.143713 11:0.753425 12:-0.349206 13:-0.366486 
-6.03252504973431 0 1:-0.621818 2:-0.811765 3:-0.205882 4:0.215385 5:-0.28 6:-0.911392 7:-0.402985 8:-0.581395 9:-0.221757 10:-0.787425 11:0.342466 12:0.0238095 13:-0.617297 
-0 8 1:-0.556364 2:-0.722353 3:0.323529 4:0.553846 5:-0.6 6:-1 7:-0.328358 8:0.767442 9:0.0041841 10:-0.607784 11:0.123288 12:-0.539683 13:-0.762162 
-0 8 1:-0.534545 2:-0.618824 3:0.352941 4:0.830769 5:-0.44 6:-1 7:-0.104478 8:0.302326 9:0.0125523 10:-0.532934 11:-0.0958904 12:-0.253968 13:-0.777297 
-0 -8 1:-0.621818 2:-0.284706 3:0.235294 4:0.215385 5:-0.04 6:-0.696203 7:-0.925373 8:1 9:-0.564854 10:0.60479 11:-0.506849 12:-0.920635 13:-0.32973 
-0 -0.2991069331210887 1:-0.207273 2:1 3:0.411765 4:0.753846 5:-0.08 6:-0.544304 7:-0.947761 8:0.906977 9:-0.0543933 10:0.844311 11:-0.863014 12:-1 13:-0.264865 
-5.091013627225351 -8 1:-0.0981818 2:0.0823529 3:0.5 4:0.676923 5:-0.12 6:-0.303797 7:-0.850746 8:0.162791 9:-0.305439 10:1 11:-1 12:-0.888889 13:-0.427027 
-8 -8 1:0.170909 2:0.0917647 3:0.735294 4:0.446154 5:0.48 6:-0.43038 7:-1 8:0.395349 9:-0.682008 10:0.239521 11:0.123288 12:-0.730159 13:-0.362162 
