svm_type c_svc
kernel_type rbf
gamma 0.000488281
nr_class 3
total_sv 74
rho 0.43823 0.105762 -0.0290724
label 1 2 3
nr_sv 22 32 20
SV
32 32 1:-0.0409357 2:-0.576744 3:0.390476 4:-0.213873 5:-0.52381 6:0.166667 7:0.255255 8:-0.36 9:-0.35443 10:-0.58371 11:0.319588 12:-0.0355731 13:0.310924 
32 0 1:0.0233918 2:-0.246512 3:0.619048 4:-0.144509 5:-0.452381 6:0.444444 7:0.741742 8:-0.32 9:0.512658 10:-0.324887 11:0.134021 12:0.486166 13:0.445378 
32 0 1:0.0467836 2:-0.516279 3:-0.390476 4:-1 5:-0.47619 6:0.325397 7:0.453453 8:-0.48 9:-0.455696 10:-0.560181 11:0.175258 12:0.667984 13:0.218487 
32 32 1:0.0701754 2:-0.139535 3:1 4:0.132948 5:-0.047619 6:0.444444 7:0.411411 8:0.04 9:-0.113924 10:-0.571041 11:0.154639 12:0.296443 13:-0.310924 
32 32 1:0.0935673 2:-0.581395 3:0.942857 4:-0.50289 5:-0.238095 6:0.285714 7:0.405405 8:-0.16 9:-0.405063 10:-0.520362 11:0.257732 12:0.177866 13:-0.0672269 
32 0 1:0.0994152 2:-0.427907 3:0.638095 4:-0.352601 5:-0.428571 6:0.603175 7:0.735736 8:-0.28 9:-0.21519 10:-0.266968 11:0.216495 12:0.225296 13:0.588235 
32 32 1:0.157895 2:-0.52093 3:0.52381 4:-0.433526 5:-0.642857 6:0.484127 7:0.561562 8:-0.16 9:-0.348101 10:-0.484163 11:-0.0927835 12:0.525692 13:0.462185 
32 24.64483413486821 1:0.222222 2:-0.502326 3:0.504762 4:0.017341 5:-0.571429 6:0.230159 7:0.363363 8:-0.4 9:-0.21519 10:-0.715837 11:0.319588 12:1 13:-0.12605 
32 32 1:0.25731 2:-0.539535 3:0.219048 4:0.0751445 5:-0.0952381 6:0.571429 7:0.465465 8:-0.72 9:0.28481 10:-0.221719 11:0.0309278 12:0.375494 13:0.336134 
32 32 1:0.304094 2:0.0976744 3:0.409524 4:-0.537572 5:-0.0952381 6:0.365079 7:0.615616 8:-0.84 9:-0.21519 10:-0.429864 11:-0.0103093 12:0.636364 13:-0.12605 
32 32 1:0.327485 2:-0.493023 3:0.0285714 4:-0.306358 5:-0.380952 6:0.142857 7:0.411411 8:0.16 9:-0.0189873 10:-0.657919 11:0.546392 12:0.249012 13:0.117647 
32 32 1:0.362573 2:-0.567442 3:-0.180952 4:-0.398844 5:-0.047619 6:0.285714 7:0.537538 8:-0.68 9:-0.240506 10:-0.294118 11:-0.0927835 12:0.509881 13:0.235294 
32 0 1:0.368421 2:-0.539535 3:0.12381 4:-0.445087 5:-0.738095 6:0.285714 7:0.453453 8:-0.36 9:-0.120253 10:-0.339367 11:0.381443 12:0.272727 13:0.672269 
32 0 1:0.374269 2:-0.632558 3:0.67619 4:-0.0404624 5:0.285714 6:0.563492 7:0.441441 8:0.48 9:-0.411392 10:-0.375566 11:0.587629 12:0.351779 13:0.529412 
32 0 1:0.432749 2:-0.716279 3:-0.142857 4:-0.445087 5:-0.52381 6:0.587302 7:0.687688 8:-0.64 9:-0.0949367 10:-0.0461538 11:0.0927835 12:0.786561 13:0.210084 
32 32 1:0.573099 2:-0.404651 3:0.104762 4:-0.121387 5:-0.404762 6:0.404762 7:0.54955 8:-0.24 9:0.240506 10:-0.230769 11:0.216495 12:0.15415 13:0.235294 
32 32 1:0.637427 2:0.534884 3:0.180952 4:-0.109827 5:-0.214286 6:0.484127 7:0.387387 8:-0.32 9:-0.474684 10:-0.404525 11:-0.195876 12:0.612648 13:0.268908 
32 0 1:0.643275 2:-0.553488 3:-0.0857143 4:-0.410405 5:-0.047619 6:0.761905 7:0.597598 8:-0.48 9:0.0189873 10:-0.19819 11:-0.0515464 12:0.596838 13:0.0840336 
0 29.4021289420977 1:0.690058 2:-0.451163 3:0.714286 4:0.017341 6:0.444444 7:0.681682 8:-0.2 9:-0.0189873 10:-0.230769 11:0.216495 12:0.0750988 13:0.605042 
32 0 1:0.736842 2:0.325581 3:-0.12381 4:-0.445087 5:-0.428571 6:0.801587 7:0.6997 8:-0.44 9:0.120253 10:-0.466063 11:0.154639 12:0.699605 13:0.243697 
14.16613416291706 0 1:0.74269 2:-0.474419 3:0.2 4:-0.606936 5:-0.571429 6:0.206349 7:0.309309 8:-0.32 9:-0.0126582 10:-0.402715 11:0.113402 12:0.810277 13:0.621849 
32 0 1:1 2:-0.581395 3:-0.333333 4:-0.676301 5:-0.547619 6:0.444444 7:0.585586 8:-0.36 9:-0.0126582 10:-0.411765 11:0.237113 12:0.233202 13:0.210084 
-32 0 1:-0.976608 2:-0.227907 3:0.142857 4:0.017341 5:-0.571429 6:0.52381 7:0.471471 8:-0.24 9:-0.107595 10:-0.764706 11:-0.340206 12:0.660079 13:-0.495798 
-32 0 1:-0.97076 2:0.395349 3:-1 4:-0.0404624 5:-0.309524 6:0.746032 7:0.345345 8:-0.56 9:1 10:-0.828054 11:-0.443299 12:0.201581 13:-0.601681 
-32 0 1:-0.883041 2:-0.716279 3:0.67619 4:0.017341 5:-0.619048 6:0.396825 7:0.54955 8:-0.36 9:0.310127 10:-0.873303 11:-0.0103093 12:0.557312 13:-0.403361 
-0 32 1:-0.853801 2:-0.469767 3:-0.809524 4:-0.445087 5:-0.547619 6:-0.5 7:-0.261261 8:-0.16 9:-0.537975 10:-0.665158 11:0.546392 12:-0.328063 13:-0.826891 
-0 32 1:-0.777778 2:-0.353488 3:0.828571 4:1 5:-0.666667 6:-0.0873016 7:0.141141 8:0.8 9:-0.151899 10:-0.809955 11:0.0103093 12:-0.0909091 13:-0.763025 
-0 21.97514212375337 1:-0.760234 2:-0.544186 3:-0.885714 4:-0.0404624 5:-0.809524 6:0.206349 7:-0.219219 8:-0.04 9:-0.367089 10:-0.98009 11:-0.0515464 12:-0.0909091 13:-0.848739 
-32 32 1:-0.748538 2:-0.930233 3:0.447619 4:-0.213873 5:-0.619048 6:-0.031746 7:0.123123 8:-0.64 9:0.221519 10:-0.800905 11:-0.360825 12:0.41502 13:-0.672269 
-0 32 1:-0.748538 2:2.22045e-016 3:-0.219048 4:-0.213873 5:-0.190476 6:-0.412698 7:-0.411411 8:0.2 9:-0.664557 10:-0.873303 11:-0.0103093 12:-0.027668 13:-0.705882 
-32 0 1:-0.730994 2:0.660465 3:0.0857143 4:0.132948 5:-0.904762 6:0.492063 7:0.615616 8:-0.68 9:0.575949 10:-0.846154 11:-0.443299 12:0.857708 13:-0.907563 
-32 0 1:-0.678363 2:-0.837209 3:-0.0857143 4:0.132948 5:-0.452381 6:0.904762 7:0.0810811 8:-1 9:-0.221519 10:-0.771946 11:0.0515464 12:0.454545 13:-0.0571429 
-0 32 1:-0.631579 2:0.655814 3:0.0666667 4:0.248555 5:-0.952381 6:-0.111111 7:-0.153153 8:0.16 9:-0.411392 10:-0.882353 11:-0.360825 12:0.0118577 13:-0.571429 
-4.496364605851572 0 1:-0.608187 2:-0.818605 3:0.314286 4:0.479769 5:-1 6:-0.190476 7:-0.255255 8:0.08 9:-0.379747 10:-0.954751 11:0.71134 12:0.130435 13:-0.487395 
-32 0 1:-0.608187 2:-0.697674 3:0.295238 4:0.306358 5:-0.857143 6:0.253968 7:0.171171 8:0.2 9:-0.607595 10:-0.828054 11:-0.0721649 12:0.501976 13:-0.89916 
-0 32 1:-0.608187 2:-0.493023 3:-0.047619 4:-0.156069 5:-0.928571 6:-0.507937 7:-0.303303 8:0.56 9:-0.227848 10:-0.918552 11:0.237113 12:-0.225296 13:-0.739496 
-0 32 1:-0.561404 2:-0.595349 3:-0.0666667 4:0.34104 5:-0.714286 6:-0.365079 7:-0.189189 8:0.2 9:-0.278481 10:-0.909502 11:0.752577 12:-0.233202 13:-0.714286 
-28.98232328683243 32 1:-0.555556 2:-0.669767 3:0.352381 4:-0.0982659 5:-0.380952 6:-0.277778 7:-0.153153 8:0.28 9:-0.613924 10:-0.819005 11:1 12:-0.256917 13:-0.94958 
-32 0 1:-0.48538 2:-0.688372 3:-0.695238 4:-0.445087 5:-0.833333 6:0.246032 7:0.297297 8:-0.36 9:-0.14557 10:-0.828054 11:0.546392 12:0.146245 13:-0.826891 
-32 32 1:-0.48538 2:-0.595349 3:-0.257143 4:0.0635838 5:-0.404762 6:-0.904762 7:-0.591592 8:-0.04 9:-0.341772 10:-0.800905 11:-0.121649 12:-0.581028 13:-0.0840336 
-32 0 1:-0.438596 2:-0.818605 3:-0.352381 4:-0.0982659 5:-0.785714 6:1 7:0.657658 8:-0.76 9:-0.0822785 10:-0.547511 11:0.525773 12:0.249012 13:-0.840336 
-32 0 1:-0.438596 2:-0.8 3:-0.809524 4:-0.0289017 5:-1 6:-0.103175 7:-0.003003 8:-0.44 9:-0.607595 10:-0.505882 11:0.319588 12:0.731225 13:-0.689076 
-32 32 1:-0.409357 2:0.716279 3:0.733333 4:0.768786 5:-0.428571 6:-0.031746 7:0.0750751 8:0.2 9:-0.183544 10:-0.976471 11:-0.0927835 12:0.44664 13:-0.932773 
-32 32 1:-0.403509 2:-0.632558 3:-0.104762 4:0.190751 5:-0.809524 6:0.396825 7:0.687688 8:0.04 9:-0.14557 10:-0.639819 11:-0.56701 12:0.225296 13:-0.954622 
-32 0 1:-0.380117 2:-0.637209 3:-0.27619 4:-0.0982659 5:1 6:0.206349 7:0.159159 8:-0.24 9:0.810127 10:-0.882353 11:0.402062 12:0.0592885 13:0.0285714 
-32 0 1:-0.356725 2:-0.539535 3:-0.695238 4:0.0751445 5:-0.833333 6:-0.031746 7:-0.0510511 8:-0.24 9:-0.329114 10:-0.820814 11:0.154639 12:0.802372 13:-0.416807 
-12.68744627023305 32 1:-0.350877 2:-0.213953 3:-0.333333 4:0.132948 5:-0.761905 6:0.246032 7:0.159159 8:-0.48 9:-0.493671 10:-0.99095 11:-0.134021 12:0.177866 13:-1 
-0 32 1:-0.304094 2:-0.72093 3:-0.847619 4:-0.156069 5:-0.761905 6:-0.626984 7:-0.387387 8:-0.36 9:-0.411392 10:-0.909502 11:0.154639 12:0.16996 13:-0.601681 
-32 0 1:-0.263158 2:-0.888372 3:-0.2 4:-0.213873 5:-0.5 6:-0.031746 7:-0.039039 8:-0.32 9:-0.341772 10:-0.878733 11:0.546392 12:0.478261 13:-0.789916 
-0 32 1:-0.233918 2:-0.530233 3:-0.12381 4:0.306358 5:-0.857143 6:-0.68254 7:-0.147147 8:0.4 9:-0.234177 10:-0.755656 11:-0.175258 12:-0.106719 13:-0.72605 
-0 32 1:-0.204678 2:0.251163 3:-0.695238 4:-0.445087 5:-0.952381 6:-0.484127 7:-0.453453 8:0.2 9:-0.740506 10:-0.737557 11:-0.546392 12:-0.343874 13:-0.921008 
-32 32 1:-0.0409357 2:0.451163 3:-0.047619 4:0.306358 5:-0.833333 6:-0.468254 7:-0.249249 8:0.92 9:-0.240506 10:-0.484163 11:-0.257732 12:-0.43083 13:-0.680672 
-32 32 1:0.128655 2:-0.906977 3:0.0285714 4:-0.32948 5:-0.238095 6:0.230159 7:-0.423423 8:0.68 9:-1 10:-0.779186 11:0.113402 12:-0.494071 13:-0.285714 
-32 32 1:0.321637 2:-0.762791 3:-0.809524 4:-0.213873 5:-0.619048 6:-0.111111 7:-0.129129 8:-0.24 9:-0.803797 10:-0.665158 11:0.546392 12:-0.0750988 13:-0.487395 
-0 -32 1:-0.538012 2:0.0651163 3:-0.047619 4:-0.0982659 5:-0.571429 6:-0.785714 7:-0.90991 8:0.08 9:-0.803797 10:-0.357466 11:-0.628866 12:-0.573123 13:-0.689076 
-0 -32 1:-0.444444 2:0.437209 3:0.0666667 4:0.132948 5:-0.761905 6:0.047619 7:-0.651652 8:0.48 9:-0.607595 10:0.0316742 11:-0.835052 12:-0.770751 13:-0.672269 
-32 -32 1:-0.356725 2:-0.767442 3:-0.180952 4:-0.271676 5:-0.833333 6:-0.190476 7:-0.855856 8:0.88 9:-0.474684 10:-0.366516 11:-0.443299 12:-0.826087 13:-0.453782 
-10.05044114347261 -32 1:-0.304094 2:-0.2 3:-0.27619 4:-0.156069 5:-0.619048 6:-0.492063 7:-0.807808 8:1 9:-0.670886 10:-0.0678733 11:-0.484536 12:-0.770751 13:-0.378151 
-0 -32 1:-0.204678 2:-0.232558 3:-0.12381 4:-0.0404624 5:-0.809524 6:-0.674603 7:-0.897898 8:0.4 9:-0.860759 10:0.438914 11:-0.814433 12:-0.731225 13:-0.756303 
-0 -3.746925175846323 1:-0.192982 2:-0.102326 3:0.257143 4:0.248555 5:-0.190476 6:-0.603175 7:-0.387387 8:-0.56 9:-0.468354 10:0.60181 11:-1 12:-0.857708 13:-0.739496 
-11.9965219334933 -32 1:-0.175439 2:0.223256 3:-0.0857143 4:-0.0404624 5:-0.761905 6:-0.603175 7:-0.807808 8:0.08 9:-0.651899 10:0.504072 11:-0.505155 12:-0.636364 13:-0.394958 
-32 -32 1:-0.152047 2:-0.716279 3:-0.047619 4:-0.213873 5:0.047619 6:-0.579365 7:-0.453453 8:-0.68 9:-0.670886 10:-0.61086 11:-0.42268 12:-1 13:-0.487395 
-0 -32 1:-0.146199 2:0.8 3:0.257143 4:0.190751 5:-0.809524 6:-0.428571 7:-0.813814 8:0.36 9:-0.721519 10:0.0316742 11:-0.876289 12:-0.549407 13:-0.495798 
-32 -32 1:-0.140351 2:0.0465116 3:0.104762 4:0.017341 5:-0.380952 6:-0.746032 7:-0.471471 8:-0.56 9:-0.740506 10:-0.375566 11:-0.463918 12:-0.897233 13:-0.655462 
-32 -32 1:-0.0935673 2:0.260465 3:0.00952381 4:-0.156069 5:-0.333333 6:-0.674603 7:-0.783784 8:0.08 9:-0.670886 10:-0.397285 11:-0.587629 12:-0.636364 13:-0.411765 
-32 -32 1:-0.00584795 2:-0.460465 3:0.771429 4:0.653179 5:-0.0952381 6:-0.031746 7:-0.435435 8:-0.48 9:-0.278481 10:-0.0678733 11:-0.731959 12:-0.968379 13:-0.831933 
-0 -30.30529575213314 1:0.0643275 2:0.190698 3:-0.12381 4:-0.156069 5:-0.52381 6:-0.349206 7:-0.705706 8:0.92 9:-0.0822785 10:0.551131 11:-0.835052 12:-0.826087 13:-0.411765 
-32 -32 1:0.116959 2:0.162791 3:0.0666667 4:0.190751 5:-0.666667 6:-0.246032 7:-0.747748 8:0.28 9:-0.474684 10:0.171041 11:-0.85567 12:-0.73913 13:-0.453782 
-32 -32 1:0.140351 2:-0.153488 3:0.00952381 4:0.017341 5:-0.738095 6:-0.666667 7:-0.903904 8:-0.04 9:-0.860759 10:-0.339367 11:-0.546392 12:-0.0671937 13:-0.235294 
-32 -19.9229211957739 1:0.163743 2:0.795349 3:0.980952 4:0.595376 5:-0.190476 6:-0.206349 7:-0.627628 8:-0.44 9:-0.563291 10:0.18552 11:-0.608247 12:-0.501976 13:-0.487395 
-32 -32 1:0.222222 2:0.106977 3:0.52381 4:0.479769 5:0.0714286 6:-0.666667 7:-0.261261 8:-0.64 9:-0.474684 10:0.20362 11:-0.773196 12:-0.992095 13:-0.705882 
-32 -32 1:0.233918 2:0.130233 3:0.714286 4:0.421965 5:-0.547619 6:-0.547619 7:-0.891892 8:0.48 9:-0.917722 10:-0.565611 11:-0.154639 12:-0.391304 13:-0.672269 
-0 -32 1:0.444444 2:1 3:-0.219048 4:0.017341 5:-0.952381 6:-1 7:-1 8:0.08 9:-0.835443 10:-0.466063 11:-0.793814 12:-0.968379 13:-0.848739 
-32 -32 1:0.71345 2:-0.562791 3:0.67619 4:0.595376 5:-0.52381 6:0.444444 7:-0.417417 8:0.6 9:0.443038 10:1 11:-0.814433 12:-0.470356 13:-0.436975 
